<?xml version="1.0"?>
<PMML version="4.4.1" xmlns="http://www.dmg.org/PMML-4_4" xmlns:xsi="http://www.w3.org/2001/XMLSchema-instance" xsi:schemaLocation="http://www.dmg.org/PMML-4_4 http://www.dmg.org/pmml/v4-4/pmml-4-4.xsd">
 <Header copyright="Copyright (c) 2022 ridley" description="Association Rules Model">
  <Extension name="user" value="ridley" extender="SoftwareAG PMML Generator"/>
  <Application name="SoftwareAG PMML Generator" version="2.5.2"/>
  <Timestamp>2022-05-11 14:49:02</Timestamp>
 </Header>
 <DataDictionary numberOfFields="2">
  <DataField name="transaction" optype="categorical" dataType="string"/>
  <DataField name="item" optype="categorical" dataType="string"/>
 </DataDictionary>
 <AssociationModel functionName="associationRules" numberOfTransactions="543301" numberOfItems="30" minimumSupport="0.001" minimumConfidence="0.5" numberOfItemsets="704" numberOfRules="1580">
  <MiningSchema>
   <MiningField name="transaction" usageType="group"/>
   <MiningField name="item" usageType="active"/>
  </MiningSchema>
  <Item id="1" value="ORF1a.A339V"/>
  <Item id="2" value="ORF1a.C3766F"/>
  <Item id="3" value="ORF1a.E1909A"/>
  <Item id="4" value="ORF1a.G519S"/>
  <Item id="5" value="ORF1a.G661S"/>
  <Item id="6" value="ORF1a.K1202N"/>
  <Item id="7" value="ORF1a.K3351R"/>
  <Item id="8" value="ORF1a.L3086F"/>
  <Item id="9" value="ORF1a.L3606F"/>
  <Item id="10" value="ORF1a.S100N"/>
  <Item id="11" value="ORF1a.S443F"/>
  <Item id="12" value="ORF1a.T814I"/>
  <Item id="13" value="ORF1a.V2766F"/>
  <Item id="14" value="ORF1a.V2857A"/>
  <Item id="15" value="ORF1b.D870N"/>
  <Item id="16" value="ORF1b.F685Y"/>
  <Item id="17" value="ORF1b.H604Y"/>
  <Item id="18" value="ORF3a.A110T"/>
  <Item id="19" value="ORF3a.K235T"/>
  <Item id="20" value="ORF3a.W128L"/>
  <Item id="21" value="ORF7a.H73Y"/>
  <Item id="22" value="ORF7a.V82A"/>
  <Item id="23" value="ORF8.S67F"/>
  <Item id="24" value="ORF8.T87S"/>
  <Item id="25" value="S.A1078S"/>
  <Item id="26" value="S.D138H"/>
  <Item id="27" value="S.G142D"/>
  <Item id="28" value="S.L1141F"/>
  <Item id="29" value="S.L5F"/>
  <Item id="30" value="S.T95I"/>
  <Itemset id="1" numberOfItems="0"/>
  <Itemset id="2" numberOfItems="1">
   <ItemRef itemRef="8"/>
  </Itemset>
  <Itemset id="3" numberOfItems="1">
   <ItemRef itemRef="10"/>
  </Itemset>
  <Itemset id="4" numberOfItems="1">
   <ItemRef itemRef="19"/>
  </Itemset>
  <Itemset id="5" numberOfItems="1">
   <ItemRef itemRef="20"/>
  </Itemset>
  <Itemset id="6" numberOfItems="1">
   <ItemRef itemRef="23"/>
  </Itemset>
  <Itemset id="7" numberOfItems="1">
   <ItemRef itemRef="1"/>
  </Itemset>
  <Itemset id="8" numberOfItems="1">
   <ItemRef itemRef="18"/>
  </Itemset>
  <Itemset id="9" numberOfItems="1">
   <ItemRef itemRef="11"/>
  </Itemset>
  <Itemset id="10" numberOfItems="1">
   <ItemRef itemRef="6"/>
  </Itemset>
  <Itemset id="11" numberOfItems="1">
   <ItemRef itemRef="12"/>
  </Itemset>
  <Itemset id="12" numberOfItems="1">
   <ItemRef itemRef="4"/>
  </Itemset>
  <Itemset id="13" numberOfItems="1">
   <ItemRef itemRef="3"/>
  </Itemset>
  <Itemset id="14" numberOfItems="1">
   <ItemRef itemRef="2"/>
  </Itemset>
  <Itemset id="15" numberOfItems="1">
   <ItemRef itemRef="25"/>
  </Itemset>
  <Itemset id="16" numberOfItems="1">
   <ItemRef itemRef="28"/>
  </Itemset>
  <Itemset id="17" numberOfItems="1">
   <ItemRef itemRef="29"/>
  </Itemset>
  <Itemset id="18" numberOfItems="1">
   <ItemRef itemRef="5"/>
  </Itemset>
  <Itemset id="19" numberOfItems="1">
   <ItemRef itemRef="24"/>
  </Itemset>
  <Itemset id="20" numberOfItems="1">
   <ItemRef itemRef="13"/>
  </Itemset>
  <Itemset id="21" numberOfItems="1">
   <ItemRef itemRef="7"/>
  </Itemset>
  <Itemset id="22" numberOfItems="1">
   <ItemRef itemRef="15"/>
  </Itemset>
  <Itemset id="23" numberOfItems="1">
   <ItemRef itemRef="21"/>
  </Itemset>
  <Itemset id="24" numberOfItems="1">
   <ItemRef itemRef="26"/>
  </Itemset>
  <Itemset id="25" numberOfItems="1">
   <ItemRef itemRef="9"/>
  </Itemset>
  <Itemset id="26" numberOfItems="1">
   <ItemRef itemRef="17"/>
  </Itemset>
  <Itemset id="27" numberOfItems="1">
   <ItemRef itemRef="14"/>
  </Itemset>
  <Itemset id="28" numberOfItems="1">
   <ItemRef itemRef="16"/>
  </Itemset>
  <Itemset id="29" numberOfItems="1">
   <ItemRef itemRef="27"/>
  </Itemset>
  <Itemset id="30" numberOfItems="1">
   <ItemRef itemRef="22"/>
  </Itemset>
  <Itemset id="31" numberOfItems="1">
   <ItemRef itemRef="30"/>
  </Itemset>
  <Itemset id="32" numberOfItems="2">
   <ItemRef itemRef="8"/>
   <ItemRef itemRef="16"/>
  </Itemset>
  <Itemset id="33" numberOfItems="2">
   <ItemRef itemRef="8"/>
   <ItemRef itemRef="27"/>
  </Itemset>
  <Itemset id="34" numberOfItems="2">
   <ItemRef itemRef="8"/>
   <ItemRef itemRef="22"/>
  </Itemset>
  <Itemset id="35" numberOfItems="2">
   <ItemRef itemRef="8"/>
   <ItemRef itemRef="30"/>
  </Itemset>
  <Itemset id="36" numberOfItems="2">
   <ItemRef itemRef="10"/>
   <ItemRef itemRef="16"/>
  </Itemset>
  <Itemset id="37" numberOfItems="2">
   <ItemRef itemRef="10"/>
   <ItemRef itemRef="27"/>
  </Itemset>
  <Itemset id="38" numberOfItems="2">
   <ItemRef itemRef="10"/>
   <ItemRef itemRef="22"/>
  </Itemset>
  <Itemset id="39" numberOfItems="2">
   <ItemRef itemRef="10"/>
   <ItemRef itemRef="30"/>
  </Itemset>
  <Itemset id="40" numberOfItems="2">
   <ItemRef itemRef="19"/>
   <ItemRef itemRef="27"/>
  </Itemset>
  <Itemset id="41" numberOfItems="2">
   <ItemRef itemRef="19"/>
   <ItemRef itemRef="22"/>
  </Itemset>
  <Itemset id="42" numberOfItems="2">
   <ItemRef itemRef="19"/>
   <ItemRef itemRef="30"/>
  </Itemset>
  <Itemset id="43" numberOfItems="2">
   <ItemRef itemRef="16"/>
   <ItemRef itemRef="20"/>
  </Itemset>
  <Itemset id="44" numberOfItems="2">
   <ItemRef itemRef="20"/>
   <ItemRef itemRef="27"/>
  </Itemset>
  <Itemset id="45" numberOfItems="2">
   <ItemRef itemRef="20"/>
   <ItemRef itemRef="22"/>
  </Itemset>
  <Itemset id="46" numberOfItems="2">
   <ItemRef itemRef="20"/>
   <ItemRef itemRef="30"/>
  </Itemset>
  <Itemset id="47" numberOfItems="2">
   <ItemRef itemRef="4"/>
   <ItemRef itemRef="23"/>
  </Itemset>
  <Itemset id="48" numberOfItems="2">
   <ItemRef itemRef="16"/>
   <ItemRef itemRef="23"/>
  </Itemset>
  <Itemset id="49" numberOfItems="2">
   <ItemRef itemRef="23"/>
   <ItemRef itemRef="27"/>
  </Itemset>
  <Itemset id="50" numberOfItems="2">
   <ItemRef itemRef="22"/>
   <ItemRef itemRef="23"/>
  </Itemset>
  <Itemset id="51" numberOfItems="2">
   <ItemRef itemRef="23"/>
   <ItemRef itemRef="30"/>
  </Itemset>
  <Itemset id="52" numberOfItems="2">
   <ItemRef itemRef="1"/>
   <ItemRef itemRef="16"/>
  </Itemset>
  <Itemset id="53" numberOfItems="2">
   <ItemRef itemRef="1"/>
   <ItemRef itemRef="27"/>
  </Itemset>
  <Itemset id="54" numberOfItems="2">
   <ItemRef itemRef="1"/>
   <ItemRef itemRef="22"/>
  </Itemset>
  <Itemset id="55" numberOfItems="2">
   <ItemRef itemRef="1"/>
   <ItemRef itemRef="30"/>
  </Itemset>
  <Itemset id="56" numberOfItems="2">
   <ItemRef itemRef="16"/>
   <ItemRef itemRef="18"/>
  </Itemset>
  <Itemset id="57" numberOfItems="2">
   <ItemRef itemRef="18"/>
   <ItemRef itemRef="27"/>
  </Itemset>
  <Itemset id="58" numberOfItems="2">
   <ItemRef itemRef="18"/>
   <ItemRef itemRef="22"/>
  </Itemset>
  <Itemset id="59" numberOfItems="2">
   <ItemRef itemRef="18"/>
   <ItemRef itemRef="30"/>
  </Itemset>
  <Itemset id="60" numberOfItems="2">
   <ItemRef itemRef="11"/>
   <ItemRef itemRef="16"/>
  </Itemset>
  <Itemset id="61" numberOfItems="2">
   <ItemRef itemRef="11"/>
   <ItemRef itemRef="27"/>
  </Itemset>
  <Itemset id="62" numberOfItems="2">
   <ItemRef itemRef="11"/>
   <ItemRef itemRef="22"/>
  </Itemset>
  <Itemset id="63" numberOfItems="2">
   <ItemRef itemRef="11"/>
   <ItemRef itemRef="30"/>
  </Itemset>
  <Itemset id="64" numberOfItems="2">
   <ItemRef itemRef="6"/>
   <ItemRef itemRef="14"/>
  </Itemset>
  <Itemset id="65" numberOfItems="2">
   <ItemRef itemRef="6"/>
   <ItemRef itemRef="16"/>
  </Itemset>
  <Itemset id="66" numberOfItems="2">
   <ItemRef itemRef="6"/>
   <ItemRef itemRef="27"/>
  </Itemset>
  <Itemset id="67" numberOfItems="2">
   <ItemRef itemRef="6"/>
   <ItemRef itemRef="22"/>
  </Itemset>
  <Itemset id="68" numberOfItems="2">
   <ItemRef itemRef="6"/>
   <ItemRef itemRef="30"/>
  </Itemset>
  <Itemset id="69" numberOfItems="2">
   <ItemRef itemRef="12"/>
   <ItemRef itemRef="16"/>
  </Itemset>
  <Itemset id="70" numberOfItems="2">
   <ItemRef itemRef="12"/>
   <ItemRef itemRef="27"/>
  </Itemset>
  <Itemset id="71" numberOfItems="2">
   <ItemRef itemRef="12"/>
   <ItemRef itemRef="22"/>
  </Itemset>
  <Itemset id="72" numberOfItems="2">
   <ItemRef itemRef="12"/>
   <ItemRef itemRef="30"/>
  </Itemset>
  <Itemset id="73" numberOfItems="2">
   <ItemRef itemRef="4"/>
   <ItemRef itemRef="5"/>
  </Itemset>
  <Itemset id="74" numberOfItems="2">
   <ItemRef itemRef="4"/>
   <ItemRef itemRef="16"/>
  </Itemset>
  <Itemset id="75" numberOfItems="2">
   <ItemRef itemRef="4"/>
   <ItemRef itemRef="27"/>
  </Itemset>
  <Itemset id="76" numberOfItems="2">
   <ItemRef itemRef="4"/>
   <ItemRef itemRef="22"/>
  </Itemset>
  <Itemset id="77" numberOfItems="2">
   <ItemRef itemRef="4"/>
   <ItemRef itemRef="30"/>
  </Itemset>
  <Itemset id="78" numberOfItems="2">
   <ItemRef itemRef="3"/>
   <ItemRef itemRef="16"/>
  </Itemset>
  <Itemset id="79" numberOfItems="2">
   <ItemRef itemRef="3"/>
   <ItemRef itemRef="27"/>
  </Itemset>
  <Itemset id="80" numberOfItems="2">
   <ItemRef itemRef="3"/>
   <ItemRef itemRef="22"/>
  </Itemset>
  <Itemset id="81" numberOfItems="2">
   <ItemRef itemRef="3"/>
   <ItemRef itemRef="30"/>
  </Itemset>
  <Itemset id="82" numberOfItems="2">
   <ItemRef itemRef="2"/>
   <ItemRef itemRef="16"/>
  </Itemset>
  <Itemset id="83" numberOfItems="2">
   <ItemRef itemRef="16"/>
   <ItemRef itemRef="25"/>
  </Itemset>
  <Itemset id="84" numberOfItems="2">
   <ItemRef itemRef="2"/>
   <ItemRef itemRef="25"/>
  </Itemset>
  <Itemset id="85" numberOfItems="2">
   <ItemRef itemRef="2"/>
   <ItemRef itemRef="27"/>
  </Itemset>
  <Itemset id="86" numberOfItems="2">
   <ItemRef itemRef="25"/>
   <ItemRef itemRef="27"/>
  </Itemset>
  <Itemset id="87" numberOfItems="2">
   <ItemRef itemRef="2"/>
   <ItemRef itemRef="22"/>
  </Itemset>
  <Itemset id="88" numberOfItems="2">
   <ItemRef itemRef="22"/>
   <ItemRef itemRef="25"/>
  </Itemset>
  <Itemset id="89" numberOfItems="2">
   <ItemRef itemRef="2"/>
   <ItemRef itemRef="30"/>
  </Itemset>
  <Itemset id="90" numberOfItems="2">
   <ItemRef itemRef="25"/>
   <ItemRef itemRef="30"/>
  </Itemset>
  <Itemset id="91" numberOfItems="2">
   <ItemRef itemRef="14"/>
   <ItemRef itemRef="28"/>
  </Itemset>
  <Itemset id="92" numberOfItems="2">
   <ItemRef itemRef="16"/>
   <ItemRef itemRef="28"/>
  </Itemset>
  <Itemset id="93" numberOfItems="2">
   <ItemRef itemRef="27"/>
   <ItemRef itemRef="28"/>
  </Itemset>
  <Itemset id="94" numberOfItems="2">
   <ItemRef itemRef="28"/>
   <ItemRef itemRef="30"/>
  </Itemset>
  <Itemset id="95" numberOfItems="2">
   <ItemRef itemRef="16"/>
   <ItemRef itemRef="29"/>
  </Itemset>
  <Itemset id="96" numberOfItems="2">
   <ItemRef itemRef="27"/>
   <ItemRef itemRef="29"/>
  </Itemset>
  <Itemset id="97" numberOfItems="2">
   <ItemRef itemRef="22"/>
   <ItemRef itemRef="29"/>
  </Itemset>
  <Itemset id="98" numberOfItems="2">
   <ItemRef itemRef="29"/>
   <ItemRef itemRef="30"/>
  </Itemset>
  <Itemset id="99" numberOfItems="2">
   <ItemRef itemRef="14"/>
   <ItemRef itemRef="25"/>
  </Itemset>
  <Itemset id="100" numberOfItems="2">
   <ItemRef itemRef="5"/>
   <ItemRef itemRef="14"/>
  </Itemset>
  <Itemset id="101" numberOfItems="2">
   <ItemRef itemRef="5"/>
   <ItemRef itemRef="16"/>
  </Itemset>
  <Itemset id="102" numberOfItems="2">
   <ItemRef itemRef="5"/>
   <ItemRef itemRef="27"/>
  </Itemset>
  <Itemset id="103" numberOfItems="2">
   <ItemRef itemRef="5"/>
   <ItemRef itemRef="22"/>
  </Itemset>
  <Itemset id="104" numberOfItems="2">
   <ItemRef itemRef="5"/>
   <ItemRef itemRef="30"/>
  </Itemset>
  <Itemset id="105" numberOfItems="2">
   <ItemRef itemRef="9"/>
   <ItemRef itemRef="24"/>
  </Itemset>
  <Itemset id="106" numberOfItems="2">
   <ItemRef itemRef="16"/>
   <ItemRef itemRef="24"/>
  </Itemset>
  <Itemset id="107" numberOfItems="2">
   <ItemRef itemRef="24"/>
   <ItemRef itemRef="27"/>
  </Itemset>
  <Itemset id="108" numberOfItems="2">
   <ItemRef itemRef="22"/>
   <ItemRef itemRef="24"/>
  </Itemset>
  <Itemset id="109" numberOfItems="2">
   <ItemRef itemRef="24"/>
   <ItemRef itemRef="30"/>
  </Itemset>
  <Itemset id="110" numberOfItems="2">
   <ItemRef itemRef="13"/>
   <ItemRef itemRef="14"/>
  </Itemset>
  <Itemset id="111" numberOfItems="2">
   <ItemRef itemRef="13"/>
   <ItemRef itemRef="16"/>
  </Itemset>
  <Itemset id="112" numberOfItems="2">
   <ItemRef itemRef="13"/>
   <ItemRef itemRef="27"/>
  </Itemset>
  <Itemset id="113" numberOfItems="2">
   <ItemRef itemRef="13"/>
   <ItemRef itemRef="22"/>
  </Itemset>
  <Itemset id="114" numberOfItems="2">
   <ItemRef itemRef="13"/>
   <ItemRef itemRef="30"/>
  </Itemset>
  <Itemset id="115" numberOfItems="2">
   <ItemRef itemRef="7"/>
   <ItemRef itemRef="15"/>
  </Itemset>
  <Itemset id="116" numberOfItems="2">
   <ItemRef itemRef="7"/>
   <ItemRef itemRef="21"/>
  </Itemset>
  <Itemset id="117" numberOfItems="2">
   <ItemRef itemRef="15"/>
   <ItemRef itemRef="21"/>
  </Itemset>
  <Itemset id="118" numberOfItems="2">
   <ItemRef itemRef="7"/>
   <ItemRef itemRef="14"/>
  </Itemset>
  <Itemset id="119" numberOfItems="2">
   <ItemRef itemRef="14"/>
   <ItemRef itemRef="15"/>
  </Itemset>
  <Itemset id="120" numberOfItems="2">
   <ItemRef itemRef="7"/>
   <ItemRef itemRef="16"/>
  </Itemset>
  <Itemset id="121" numberOfItems="2">
   <ItemRef itemRef="15"/>
   <ItemRef itemRef="16"/>
  </Itemset>
  <Itemset id="122" numberOfItems="2">
   <ItemRef itemRef="7"/>
   <ItemRef itemRef="27"/>
  </Itemset>
  <Itemset id="123" numberOfItems="2">
   <ItemRef itemRef="15"/>
   <ItemRef itemRef="27"/>
  </Itemset>
  <Itemset id="124" numberOfItems="2">
   <ItemRef itemRef="7"/>
   <ItemRef itemRef="22"/>
  </Itemset>
  <Itemset id="125" numberOfItems="2">
   <ItemRef itemRef="15"/>
   <ItemRef itemRef="22"/>
  </Itemset>
  <Itemset id="126" numberOfItems="2">
   <ItemRef itemRef="7"/>
   <ItemRef itemRef="30"/>
  </Itemset>
  <Itemset id="127" numberOfItems="2">
   <ItemRef itemRef="15"/>
   <ItemRef itemRef="30"/>
  </Itemset>
  <Itemset id="128" numberOfItems="2">
   <ItemRef itemRef="14"/>
   <ItemRef itemRef="21"/>
  </Itemset>
  <Itemset id="129" numberOfItems="2">
   <ItemRef itemRef="16"/>
   <ItemRef itemRef="21"/>
  </Itemset>
  <Itemset id="130" numberOfItems="2">
   <ItemRef itemRef="21"/>
   <ItemRef itemRef="27"/>
  </Itemset>
  <Itemset id="131" numberOfItems="2">
   <ItemRef itemRef="21"/>
   <ItemRef itemRef="22"/>
  </Itemset>
  <Itemset id="132" numberOfItems="2">
   <ItemRef itemRef="21"/>
   <ItemRef itemRef="30"/>
  </Itemset>
  <Itemset id="133" numberOfItems="2">
   <ItemRef itemRef="9"/>
   <ItemRef itemRef="26"/>
  </Itemset>
  <Itemset id="134" numberOfItems="2">
   <ItemRef itemRef="14"/>
   <ItemRef itemRef="26"/>
  </Itemset>
  <Itemset id="135" numberOfItems="2">
   <ItemRef itemRef="16"/>
   <ItemRef itemRef="26"/>
  </Itemset>
  <Itemset id="136" numberOfItems="2">
   <ItemRef itemRef="26"/>
   <ItemRef itemRef="27"/>
  </Itemset>
  <Itemset id="137" numberOfItems="2">
   <ItemRef itemRef="22"/>
   <ItemRef itemRef="26"/>
  </Itemset>
  <Itemset id="138" numberOfItems="2">
   <ItemRef itemRef="26"/>
   <ItemRef itemRef="30"/>
  </Itemset>
  <Itemset id="139" numberOfItems="2">
   <ItemRef itemRef="9"/>
   <ItemRef itemRef="17"/>
  </Itemset>
  <Itemset id="140" numberOfItems="2">
   <ItemRef itemRef="9"/>
   <ItemRef itemRef="14"/>
  </Itemset>
  <Itemset id="141" numberOfItems="2">
   <ItemRef itemRef="9"/>
   <ItemRef itemRef="16"/>
  </Itemset>
  <Itemset id="142" numberOfItems="2">
   <ItemRef itemRef="9"/>
   <ItemRef itemRef="27"/>
  </Itemset>
  <Itemset id="143" numberOfItems="2">
   <ItemRef itemRef="9"/>
   <ItemRef itemRef="22"/>
  </Itemset>
  <Itemset id="144" numberOfItems="2">
   <ItemRef itemRef="9"/>
   <ItemRef itemRef="30"/>
  </Itemset>
  <Itemset id="145" numberOfItems="2">
   <ItemRef itemRef="14"/>
   <ItemRef itemRef="17"/>
  </Itemset>
  <Itemset id="146" numberOfItems="2">
   <ItemRef itemRef="16"/>
   <ItemRef itemRef="17"/>
  </Itemset>
  <Itemset id="147" numberOfItems="2">
   <ItemRef itemRef="17"/>
   <ItemRef itemRef="27"/>
  </Itemset>
  <Itemset id="148" numberOfItems="2">
   <ItemRef itemRef="17"/>
   <ItemRef itemRef="22"/>
  </Itemset>
  <Itemset id="149" numberOfItems="2">
   <ItemRef itemRef="17"/>
   <ItemRef itemRef="30"/>
  </Itemset>
  <Itemset id="150" numberOfItems="2">
   <ItemRef itemRef="14"/>
   <ItemRef itemRef="16"/>
  </Itemset>
  <Itemset id="151" numberOfItems="2">
   <ItemRef itemRef="14"/>
   <ItemRef itemRef="27"/>
  </Itemset>
  <Itemset id="152" numberOfItems="2">
   <ItemRef itemRef="14"/>
   <ItemRef itemRef="22"/>
  </Itemset>
  <Itemset id="153" numberOfItems="2">
   <ItemRef itemRef="14"/>
   <ItemRef itemRef="30"/>
  </Itemset>
  <Itemset id="154" numberOfItems="2">
   <ItemRef itemRef="16"/>
   <ItemRef itemRef="27"/>
  </Itemset>
  <Itemset id="155" numberOfItems="2">
   <ItemRef itemRef="16"/>
   <ItemRef itemRef="22"/>
  </Itemset>
  <Itemset id="156" numberOfItems="2">
   <ItemRef itemRef="16"/>
   <ItemRef itemRef="30"/>
  </Itemset>
  <Itemset id="157" numberOfItems="2">
   <ItemRef itemRef="22"/>
   <ItemRef itemRef="27"/>
  </Itemset>
  <Itemset id="158" numberOfItems="2">
   <ItemRef itemRef="27"/>
   <ItemRef itemRef="30"/>
  </Itemset>
  <Itemset id="159" numberOfItems="2">
   <ItemRef itemRef="22"/>
   <ItemRef itemRef="30"/>
  </Itemset>
  <Itemset id="160" numberOfItems="3">
   <ItemRef itemRef="8"/>
   <ItemRef itemRef="16"/>
   <ItemRef itemRef="27"/>
  </Itemset>
  <Itemset id="161" numberOfItems="3">
   <ItemRef itemRef="8"/>
   <ItemRef itemRef="16"/>
   <ItemRef itemRef="22"/>
  </Itemset>
  <Itemset id="162" numberOfItems="3">
   <ItemRef itemRef="8"/>
   <ItemRef itemRef="16"/>
   <ItemRef itemRef="30"/>
  </Itemset>
  <Itemset id="163" numberOfItems="3">
   <ItemRef itemRef="8"/>
   <ItemRef itemRef="22"/>
   <ItemRef itemRef="27"/>
  </Itemset>
  <Itemset id="164" numberOfItems="3">
   <ItemRef itemRef="8"/>
   <ItemRef itemRef="27"/>
   <ItemRef itemRef="30"/>
  </Itemset>
  <Itemset id="165" numberOfItems="3">
   <ItemRef itemRef="8"/>
   <ItemRef itemRef="22"/>
   <ItemRef itemRef="30"/>
  </Itemset>
  <Itemset id="166" numberOfItems="3">
   <ItemRef itemRef="10"/>
   <ItemRef itemRef="16"/>
   <ItemRef itemRef="27"/>
  </Itemset>
  <Itemset id="167" numberOfItems="3">
   <ItemRef itemRef="10"/>
   <ItemRef itemRef="16"/>
   <ItemRef itemRef="22"/>
  </Itemset>
  <Itemset id="168" numberOfItems="3">
   <ItemRef itemRef="10"/>
   <ItemRef itemRef="16"/>
   <ItemRef itemRef="30"/>
  </Itemset>
  <Itemset id="169" numberOfItems="3">
   <ItemRef itemRef="10"/>
   <ItemRef itemRef="22"/>
   <ItemRef itemRef="27"/>
  </Itemset>
  <Itemset id="170" numberOfItems="3">
   <ItemRef itemRef="10"/>
   <ItemRef itemRef="27"/>
   <ItemRef itemRef="30"/>
  </Itemset>
  <Itemset id="171" numberOfItems="3">
   <ItemRef itemRef="10"/>
   <ItemRef itemRef="22"/>
   <ItemRef itemRef="30"/>
  </Itemset>
  <Itemset id="172" numberOfItems="3">
   <ItemRef itemRef="19"/>
   <ItemRef itemRef="22"/>
   <ItemRef itemRef="27"/>
  </Itemset>
  <Itemset id="173" numberOfItems="3">
   <ItemRef itemRef="19"/>
   <ItemRef itemRef="27"/>
   <ItemRef itemRef="30"/>
  </Itemset>
  <Itemset id="174" numberOfItems="3">
   <ItemRef itemRef="19"/>
   <ItemRef itemRef="22"/>
   <ItemRef itemRef="30"/>
  </Itemset>
  <Itemset id="175" numberOfItems="3">
   <ItemRef itemRef="16"/>
   <ItemRef itemRef="20"/>
   <ItemRef itemRef="27"/>
  </Itemset>
  <Itemset id="176" numberOfItems="3">
   <ItemRef itemRef="16"/>
   <ItemRef itemRef="20"/>
   <ItemRef itemRef="22"/>
  </Itemset>
  <Itemset id="177" numberOfItems="3">
   <ItemRef itemRef="16"/>
   <ItemRef itemRef="20"/>
   <ItemRef itemRef="30"/>
  </Itemset>
  <Itemset id="178" numberOfItems="3">
   <ItemRef itemRef="20"/>
   <ItemRef itemRef="22"/>
   <ItemRef itemRef="27"/>
  </Itemset>
  <Itemset id="179" numberOfItems="3">
   <ItemRef itemRef="20"/>
   <ItemRef itemRef="27"/>
   <ItemRef itemRef="30"/>
  </Itemset>
  <Itemset id="180" numberOfItems="3">
   <ItemRef itemRef="20"/>
   <ItemRef itemRef="22"/>
   <ItemRef itemRef="30"/>
  </Itemset>
  <Itemset id="181" numberOfItems="3">
   <ItemRef itemRef="4"/>
   <ItemRef itemRef="23"/>
   <ItemRef itemRef="27"/>
  </Itemset>
  <Itemset id="182" numberOfItems="3">
   <ItemRef itemRef="4"/>
   <ItemRef itemRef="22"/>
   <ItemRef itemRef="23"/>
  </Itemset>
  <Itemset id="183" numberOfItems="3">
   <ItemRef itemRef="4"/>
   <ItemRef itemRef="23"/>
   <ItemRef itemRef="30"/>
  </Itemset>
  <Itemset id="184" numberOfItems="3">
   <ItemRef itemRef="16"/>
   <ItemRef itemRef="23"/>
   <ItemRef itemRef="27"/>
  </Itemset>
  <Itemset id="185" numberOfItems="3">
   <ItemRef itemRef="16"/>
   <ItemRef itemRef="22"/>
   <ItemRef itemRef="23"/>
  </Itemset>
  <Itemset id="186" numberOfItems="3">
   <ItemRef itemRef="16"/>
   <ItemRef itemRef="23"/>
   <ItemRef itemRef="30"/>
  </Itemset>
  <Itemset id="187" numberOfItems="3">
   <ItemRef itemRef="22"/>
   <ItemRef itemRef="23"/>
   <ItemRef itemRef="27"/>
  </Itemset>
  <Itemset id="188" numberOfItems="3">
   <ItemRef itemRef="23"/>
   <ItemRef itemRef="27"/>
   <ItemRef itemRef="30"/>
  </Itemset>
  <Itemset id="189" numberOfItems="3">
   <ItemRef itemRef="22"/>
   <ItemRef itemRef="23"/>
   <ItemRef itemRef="30"/>
  </Itemset>
  <Itemset id="190" numberOfItems="3">
   <ItemRef itemRef="1"/>
   <ItemRef itemRef="16"/>
   <ItemRef itemRef="27"/>
  </Itemset>
  <Itemset id="191" numberOfItems="3">
   <ItemRef itemRef="1"/>
   <ItemRef itemRef="16"/>
   <ItemRef itemRef="22"/>
  </Itemset>
  <Itemset id="192" numberOfItems="3">
   <ItemRef itemRef="1"/>
   <ItemRef itemRef="16"/>
   <ItemRef itemRef="30"/>
  </Itemset>
  <Itemset id="193" numberOfItems="3">
   <ItemRef itemRef="1"/>
   <ItemRef itemRef="22"/>
   <ItemRef itemRef="27"/>
  </Itemset>
  <Itemset id="194" numberOfItems="3">
   <ItemRef itemRef="1"/>
   <ItemRef itemRef="27"/>
   <ItemRef itemRef="30"/>
  </Itemset>
  <Itemset id="195" numberOfItems="3">
   <ItemRef itemRef="1"/>
   <ItemRef itemRef="22"/>
   <ItemRef itemRef="30"/>
  </Itemset>
  <Itemset id="196" numberOfItems="3">
   <ItemRef itemRef="16"/>
   <ItemRef itemRef="18"/>
   <ItemRef itemRef="27"/>
  </Itemset>
  <Itemset id="197" numberOfItems="3">
   <ItemRef itemRef="16"/>
   <ItemRef itemRef="18"/>
   <ItemRef itemRef="22"/>
  </Itemset>
  <Itemset id="198" numberOfItems="3">
   <ItemRef itemRef="16"/>
   <ItemRef itemRef="18"/>
   <ItemRef itemRef="30"/>
  </Itemset>
  <Itemset id="199" numberOfItems="3">
   <ItemRef itemRef="18"/>
   <ItemRef itemRef="22"/>
   <ItemRef itemRef="27"/>
  </Itemset>
  <Itemset id="200" numberOfItems="3">
   <ItemRef itemRef="18"/>
   <ItemRef itemRef="27"/>
   <ItemRef itemRef="30"/>
  </Itemset>
  <Itemset id="201" numberOfItems="3">
   <ItemRef itemRef="18"/>
   <ItemRef itemRef="22"/>
   <ItemRef itemRef="30"/>
  </Itemset>
  <Itemset id="202" numberOfItems="3">
   <ItemRef itemRef="11"/>
   <ItemRef itemRef="16"/>
   <ItemRef itemRef="27"/>
  </Itemset>
  <Itemset id="203" numberOfItems="3">
   <ItemRef itemRef="11"/>
   <ItemRef itemRef="16"/>
   <ItemRef itemRef="22"/>
  </Itemset>
  <Itemset id="204" numberOfItems="3">
   <ItemRef itemRef="11"/>
   <ItemRef itemRef="16"/>
   <ItemRef itemRef="30"/>
  </Itemset>
  <Itemset id="205" numberOfItems="3">
   <ItemRef itemRef="11"/>
   <ItemRef itemRef="22"/>
   <ItemRef itemRef="27"/>
  </Itemset>
  <Itemset id="206" numberOfItems="3">
   <ItemRef itemRef="11"/>
   <ItemRef itemRef="27"/>
   <ItemRef itemRef="30"/>
  </Itemset>
  <Itemset id="207" numberOfItems="3">
   <ItemRef itemRef="11"/>
   <ItemRef itemRef="22"/>
   <ItemRef itemRef="30"/>
  </Itemset>
  <Itemset id="208" numberOfItems="3">
   <ItemRef itemRef="6"/>
   <ItemRef itemRef="14"/>
   <ItemRef itemRef="16"/>
  </Itemset>
  <Itemset id="209" numberOfItems="3">
   <ItemRef itemRef="6"/>
   <ItemRef itemRef="14"/>
   <ItemRef itemRef="27"/>
  </Itemset>
  <Itemset id="210" numberOfItems="3">
   <ItemRef itemRef="6"/>
   <ItemRef itemRef="14"/>
   <ItemRef itemRef="22"/>
  </Itemset>
  <Itemset id="211" numberOfItems="3">
   <ItemRef itemRef="6"/>
   <ItemRef itemRef="14"/>
   <ItemRef itemRef="30"/>
  </Itemset>
  <Itemset id="212" numberOfItems="3">
   <ItemRef itemRef="6"/>
   <ItemRef itemRef="16"/>
   <ItemRef itemRef="27"/>
  </Itemset>
  <Itemset id="213" numberOfItems="3">
   <ItemRef itemRef="6"/>
   <ItemRef itemRef="16"/>
   <ItemRef itemRef="22"/>
  </Itemset>
  <Itemset id="214" numberOfItems="3">
   <ItemRef itemRef="6"/>
   <ItemRef itemRef="16"/>
   <ItemRef itemRef="30"/>
  </Itemset>
  <Itemset id="215" numberOfItems="3">
   <ItemRef itemRef="6"/>
   <ItemRef itemRef="22"/>
   <ItemRef itemRef="27"/>
  </Itemset>
  <Itemset id="216" numberOfItems="3">
   <ItemRef itemRef="6"/>
   <ItemRef itemRef="27"/>
   <ItemRef itemRef="30"/>
  </Itemset>
  <Itemset id="217" numberOfItems="3">
   <ItemRef itemRef="6"/>
   <ItemRef itemRef="22"/>
   <ItemRef itemRef="30"/>
  </Itemset>
  <Itemset id="218" numberOfItems="3">
   <ItemRef itemRef="12"/>
   <ItemRef itemRef="16"/>
   <ItemRef itemRef="27"/>
  </Itemset>
  <Itemset id="219" numberOfItems="3">
   <ItemRef itemRef="12"/>
   <ItemRef itemRef="16"/>
   <ItemRef itemRef="22"/>
  </Itemset>
  <Itemset id="220" numberOfItems="3">
   <ItemRef itemRef="12"/>
   <ItemRef itemRef="16"/>
   <ItemRef itemRef="30"/>
  </Itemset>
  <Itemset id="221" numberOfItems="3">
   <ItemRef itemRef="12"/>
   <ItemRef itemRef="22"/>
   <ItemRef itemRef="27"/>
  </Itemset>
  <Itemset id="222" numberOfItems="3">
   <ItemRef itemRef="12"/>
   <ItemRef itemRef="27"/>
   <ItemRef itemRef="30"/>
  </Itemset>
  <Itemset id="223" numberOfItems="3">
   <ItemRef itemRef="12"/>
   <ItemRef itemRef="22"/>
   <ItemRef itemRef="30"/>
  </Itemset>
  <Itemset id="224" numberOfItems="3">
   <ItemRef itemRef="4"/>
   <ItemRef itemRef="5"/>
   <ItemRef itemRef="22"/>
  </Itemset>
  <Itemset id="225" numberOfItems="3">
   <ItemRef itemRef="4"/>
   <ItemRef itemRef="5"/>
   <ItemRef itemRef="30"/>
  </Itemset>
  <Itemset id="226" numberOfItems="3">
   <ItemRef itemRef="4"/>
   <ItemRef itemRef="16"/>
   <ItemRef itemRef="27"/>
  </Itemset>
  <Itemset id="227" numberOfItems="3">
   <ItemRef itemRef="4"/>
   <ItemRef itemRef="16"/>
   <ItemRef itemRef="22"/>
  </Itemset>
  <Itemset id="228" numberOfItems="3">
   <ItemRef itemRef="4"/>
   <ItemRef itemRef="16"/>
   <ItemRef itemRef="30"/>
  </Itemset>
  <Itemset id="229" numberOfItems="3">
   <ItemRef itemRef="4"/>
   <ItemRef itemRef="22"/>
   <ItemRef itemRef="27"/>
  </Itemset>
  <Itemset id="230" numberOfItems="3">
   <ItemRef itemRef="4"/>
   <ItemRef itemRef="27"/>
   <ItemRef itemRef="30"/>
  </Itemset>
  <Itemset id="231" numberOfItems="3">
   <ItemRef itemRef="4"/>
   <ItemRef itemRef="22"/>
   <ItemRef itemRef="30"/>
  </Itemset>
  <Itemset id="232" numberOfItems="3">
   <ItemRef itemRef="3"/>
   <ItemRef itemRef="16"/>
   <ItemRef itemRef="27"/>
  </Itemset>
  <Itemset id="233" numberOfItems="3">
   <ItemRef itemRef="3"/>
   <ItemRef itemRef="16"/>
   <ItemRef itemRef="22"/>
  </Itemset>
  <Itemset id="234" numberOfItems="3">
   <ItemRef itemRef="3"/>
   <ItemRef itemRef="16"/>
   <ItemRef itemRef="30"/>
  </Itemset>
  <Itemset id="235" numberOfItems="3">
   <ItemRef itemRef="3"/>
   <ItemRef itemRef="22"/>
   <ItemRef itemRef="27"/>
  </Itemset>
  <Itemset id="236" numberOfItems="3">
   <ItemRef itemRef="3"/>
   <ItemRef itemRef="27"/>
   <ItemRef itemRef="30"/>
  </Itemset>
  <Itemset id="237" numberOfItems="3">
   <ItemRef itemRef="3"/>
   <ItemRef itemRef="22"/>
   <ItemRef itemRef="30"/>
  </Itemset>
  <Itemset id="238" numberOfItems="3">
   <ItemRef itemRef="2"/>
   <ItemRef itemRef="16"/>
   <ItemRef itemRef="25"/>
  </Itemset>
  <Itemset id="239" numberOfItems="3">
   <ItemRef itemRef="2"/>
   <ItemRef itemRef="16"/>
   <ItemRef itemRef="27"/>
  </Itemset>
  <Itemset id="240" numberOfItems="3">
   <ItemRef itemRef="16"/>
   <ItemRef itemRef="25"/>
   <ItemRef itemRef="27"/>
  </Itemset>
  <Itemset id="241" numberOfItems="3">
   <ItemRef itemRef="2"/>
   <ItemRef itemRef="16"/>
   <ItemRef itemRef="22"/>
  </Itemset>
  <Itemset id="242" numberOfItems="3">
   <ItemRef itemRef="16"/>
   <ItemRef itemRef="22"/>
   <ItemRef itemRef="25"/>
  </Itemset>
  <Itemset id="243" numberOfItems="3">
   <ItemRef itemRef="2"/>
   <ItemRef itemRef="16"/>
   <ItemRef itemRef="30"/>
  </Itemset>
  <Itemset id="244" numberOfItems="3">
   <ItemRef itemRef="16"/>
   <ItemRef itemRef="25"/>
   <ItemRef itemRef="30"/>
  </Itemset>
  <Itemset id="245" numberOfItems="3">
   <ItemRef itemRef="2"/>
   <ItemRef itemRef="25"/>
   <ItemRef itemRef="27"/>
  </Itemset>
  <Itemset id="246" numberOfItems="3">
   <ItemRef itemRef="2"/>
   <ItemRef itemRef="22"/>
   <ItemRef itemRef="25"/>
  </Itemset>
  <Itemset id="247" numberOfItems="3">
   <ItemRef itemRef="2"/>
   <ItemRef itemRef="22"/>
   <ItemRef itemRef="27"/>
  </Itemset>
  <Itemset id="248" numberOfItems="3">
   <ItemRef itemRef="22"/>
   <ItemRef itemRef="25"/>
   <ItemRef itemRef="27"/>
  </Itemset>
  <Itemset id="249" numberOfItems="3">
   <ItemRef itemRef="2"/>
   <ItemRef itemRef="25"/>
   <ItemRef itemRef="30"/>
  </Itemset>
  <Itemset id="250" numberOfItems="3">
   <ItemRef itemRef="2"/>
   <ItemRef itemRef="27"/>
   <ItemRef itemRef="30"/>
  </Itemset>
  <Itemset id="251" numberOfItems="3">
   <ItemRef itemRef="25"/>
   <ItemRef itemRef="27"/>
   <ItemRef itemRef="30"/>
  </Itemset>
  <Itemset id="252" numberOfItems="3">
   <ItemRef itemRef="2"/>
   <ItemRef itemRef="22"/>
   <ItemRef itemRef="30"/>
  </Itemset>
  <Itemset id="253" numberOfItems="3">
   <ItemRef itemRef="22"/>
   <ItemRef itemRef="25"/>
   <ItemRef itemRef="30"/>
  </Itemset>
  <Itemset id="254" numberOfItems="3">
   <ItemRef itemRef="14"/>
   <ItemRef itemRef="16"/>
   <ItemRef itemRef="28"/>
  </Itemset>
  <Itemset id="255" numberOfItems="3">
   <ItemRef itemRef="14"/>
   <ItemRef itemRef="27"/>
   <ItemRef itemRef="28"/>
  </Itemset>
  <Itemset id="256" numberOfItems="3">
   <ItemRef itemRef="14"/>
   <ItemRef itemRef="28"/>
   <ItemRef itemRef="30"/>
  </Itemset>
  <Itemset id="257" numberOfItems="3">
   <ItemRef itemRef="16"/>
   <ItemRef itemRef="27"/>
   <ItemRef itemRef="28"/>
  </Itemset>
  <Itemset id="258" numberOfItems="3">
   <ItemRef itemRef="16"/>
   <ItemRef itemRef="28"/>
   <ItemRef itemRef="30"/>
  </Itemset>
  <Itemset id="259" numberOfItems="3">
   <ItemRef itemRef="16"/>
   <ItemRef itemRef="27"/>
   <ItemRef itemRef="29"/>
  </Itemset>
  <Itemset id="260" numberOfItems="3">
   <ItemRef itemRef="16"/>
   <ItemRef itemRef="22"/>
   <ItemRef itemRef="29"/>
  </Itemset>
  <Itemset id="261" numberOfItems="3">
   <ItemRef itemRef="16"/>
   <ItemRef itemRef="29"/>
   <ItemRef itemRef="30"/>
  </Itemset>
  <Itemset id="262" numberOfItems="3">
   <ItemRef itemRef="22"/>
   <ItemRef itemRef="27"/>
   <ItemRef itemRef="29"/>
  </Itemset>
  <Itemset id="263" numberOfItems="3">
   <ItemRef itemRef="27"/>
   <ItemRef itemRef="29"/>
   <ItemRef itemRef="30"/>
  </Itemset>
  <Itemset id="264" numberOfItems="3">
   <ItemRef itemRef="22"/>
   <ItemRef itemRef="29"/>
   <ItemRef itemRef="30"/>
  </Itemset>
  <Itemset id="265" numberOfItems="3">
   <ItemRef itemRef="14"/>
   <ItemRef itemRef="16"/>
   <ItemRef itemRef="25"/>
  </Itemset>
  <Itemset id="266" numberOfItems="3">
   <ItemRef itemRef="14"/>
   <ItemRef itemRef="25"/>
   <ItemRef itemRef="27"/>
  </Itemset>
  <Itemset id="267" numberOfItems="3">
   <ItemRef itemRef="14"/>
   <ItemRef itemRef="22"/>
   <ItemRef itemRef="25"/>
  </Itemset>
  <Itemset id="268" numberOfItems="3">
   <ItemRef itemRef="14"/>
   <ItemRef itemRef="25"/>
   <ItemRef itemRef="30"/>
  </Itemset>
  <Itemset id="269" numberOfItems="3">
   <ItemRef itemRef="5"/>
   <ItemRef itemRef="14"/>
   <ItemRef itemRef="16"/>
  </Itemset>
  <Itemset id="270" numberOfItems="3">
   <ItemRef itemRef="5"/>
   <ItemRef itemRef="14"/>
   <ItemRef itemRef="27"/>
  </Itemset>
  <Itemset id="271" numberOfItems="3">
   <ItemRef itemRef="5"/>
   <ItemRef itemRef="14"/>
   <ItemRef itemRef="22"/>
  </Itemset>
  <Itemset id="272" numberOfItems="3">
   <ItemRef itemRef="5"/>
   <ItemRef itemRef="14"/>
   <ItemRef itemRef="30"/>
  </Itemset>
  <Itemset id="273" numberOfItems="3">
   <ItemRef itemRef="5"/>
   <ItemRef itemRef="16"/>
   <ItemRef itemRef="27"/>
  </Itemset>
  <Itemset id="274" numberOfItems="3">
   <ItemRef itemRef="5"/>
   <ItemRef itemRef="16"/>
   <ItemRef itemRef="22"/>
  </Itemset>
  <Itemset id="275" numberOfItems="3">
   <ItemRef itemRef="5"/>
   <ItemRef itemRef="16"/>
   <ItemRef itemRef="30"/>
  </Itemset>
  <Itemset id="276" numberOfItems="3">
   <ItemRef itemRef="5"/>
   <ItemRef itemRef="22"/>
   <ItemRef itemRef="27"/>
  </Itemset>
  <Itemset id="277" numberOfItems="3">
   <ItemRef itemRef="5"/>
   <ItemRef itemRef="27"/>
   <ItemRef itemRef="30"/>
  </Itemset>
  <Itemset id="278" numberOfItems="3">
   <ItemRef itemRef="5"/>
   <ItemRef itemRef="22"/>
   <ItemRef itemRef="30"/>
  </Itemset>
  <Itemset id="279" numberOfItems="3">
   <ItemRef itemRef="9"/>
   <ItemRef itemRef="24"/>
   <ItemRef itemRef="27"/>
  </Itemset>
  <Itemset id="280" numberOfItems="3">
   <ItemRef itemRef="9"/>
   <ItemRef itemRef="22"/>
   <ItemRef itemRef="24"/>
  </Itemset>
  <Itemset id="281" numberOfItems="3">
   <ItemRef itemRef="9"/>
   <ItemRef itemRef="24"/>
   <ItemRef itemRef="30"/>
  </Itemset>
  <Itemset id="282" numberOfItems="3">
   <ItemRef itemRef="16"/>
   <ItemRef itemRef="24"/>
   <ItemRef itemRef="27"/>
  </Itemset>
  <Itemset id="283" numberOfItems="3">
   <ItemRef itemRef="16"/>
   <ItemRef itemRef="22"/>
   <ItemRef itemRef="24"/>
  </Itemset>
  <Itemset id="284" numberOfItems="3">
   <ItemRef itemRef="16"/>
   <ItemRef itemRef="24"/>
   <ItemRef itemRef="30"/>
  </Itemset>
  <Itemset id="285" numberOfItems="3">
   <ItemRef itemRef="22"/>
   <ItemRef itemRef="24"/>
   <ItemRef itemRef="27"/>
  </Itemset>
  <Itemset id="286" numberOfItems="3">
   <ItemRef itemRef="24"/>
   <ItemRef itemRef="27"/>
   <ItemRef itemRef="30"/>
  </Itemset>
  <Itemset id="287" numberOfItems="3">
   <ItemRef itemRef="22"/>
   <ItemRef itemRef="24"/>
   <ItemRef itemRef="30"/>
  </Itemset>
  <Itemset id="288" numberOfItems="3">
   <ItemRef itemRef="13"/>
   <ItemRef itemRef="14"/>
   <ItemRef itemRef="16"/>
  </Itemset>
  <Itemset id="289" numberOfItems="3">
   <ItemRef itemRef="13"/>
   <ItemRef itemRef="14"/>
   <ItemRef itemRef="27"/>
  </Itemset>
  <Itemset id="290" numberOfItems="3">
   <ItemRef itemRef="13"/>
   <ItemRef itemRef="14"/>
   <ItemRef itemRef="22"/>
  </Itemset>
  <Itemset id="291" numberOfItems="3">
   <ItemRef itemRef="13"/>
   <ItemRef itemRef="14"/>
   <ItemRef itemRef="30"/>
  </Itemset>
  <Itemset id="292" numberOfItems="3">
   <ItemRef itemRef="13"/>
   <ItemRef itemRef="16"/>
   <ItemRef itemRef="27"/>
  </Itemset>
  <Itemset id="293" numberOfItems="3">
   <ItemRef itemRef="13"/>
   <ItemRef itemRef="16"/>
   <ItemRef itemRef="22"/>
  </Itemset>
  <Itemset id="294" numberOfItems="3">
   <ItemRef itemRef="13"/>
   <ItemRef itemRef="16"/>
   <ItemRef itemRef="30"/>
  </Itemset>
  <Itemset id="295" numberOfItems="3">
   <ItemRef itemRef="13"/>
   <ItemRef itemRef="22"/>
   <ItemRef itemRef="27"/>
  </Itemset>
  <Itemset id="296" numberOfItems="3">
   <ItemRef itemRef="13"/>
   <ItemRef itemRef="27"/>
   <ItemRef itemRef="30"/>
  </Itemset>
  <Itemset id="297" numberOfItems="3">
   <ItemRef itemRef="13"/>
   <ItemRef itemRef="22"/>
   <ItemRef itemRef="30"/>
  </Itemset>
  <Itemset id="298" numberOfItems="3">
   <ItemRef itemRef="7"/>
   <ItemRef itemRef="14"/>
   <ItemRef itemRef="15"/>
  </Itemset>
  <Itemset id="299" numberOfItems="3">
   <ItemRef itemRef="7"/>
   <ItemRef itemRef="14"/>
   <ItemRef itemRef="21"/>
  </Itemset>
  <Itemset id="300" numberOfItems="3">
   <ItemRef itemRef="14"/>
   <ItemRef itemRef="15"/>
   <ItemRef itemRef="21"/>
  </Itemset>
  <Itemset id="301" numberOfItems="3">
   <ItemRef itemRef="7"/>
   <ItemRef itemRef="15"/>
   <ItemRef itemRef="16"/>
  </Itemset>
  <Itemset id="302" numberOfItems="3">
   <ItemRef itemRef="7"/>
   <ItemRef itemRef="16"/>
   <ItemRef itemRef="21"/>
  </Itemset>
  <Itemset id="303" numberOfItems="3">
   <ItemRef itemRef="15"/>
   <ItemRef itemRef="16"/>
   <ItemRef itemRef="21"/>
  </Itemset>
  <Itemset id="304" numberOfItems="3">
   <ItemRef itemRef="7"/>
   <ItemRef itemRef="15"/>
   <ItemRef itemRef="21"/>
  </Itemset>
  <Itemset id="305" numberOfItems="3">
   <ItemRef itemRef="7"/>
   <ItemRef itemRef="15"/>
   <ItemRef itemRef="27"/>
  </Itemset>
  <Itemset id="306" numberOfItems="3">
   <ItemRef itemRef="7"/>
   <ItemRef itemRef="21"/>
   <ItemRef itemRef="27"/>
  </Itemset>
  <Itemset id="307" numberOfItems="3">
   <ItemRef itemRef="15"/>
   <ItemRef itemRef="21"/>
   <ItemRef itemRef="27"/>
  </Itemset>
  <Itemset id="308" numberOfItems="3">
   <ItemRef itemRef="7"/>
   <ItemRef itemRef="15"/>
   <ItemRef itemRef="22"/>
  </Itemset>
  <Itemset id="309" numberOfItems="3">
   <ItemRef itemRef="7"/>
   <ItemRef itemRef="21"/>
   <ItemRef itemRef="22"/>
  </Itemset>
  <Itemset id="310" numberOfItems="3">
   <ItemRef itemRef="15"/>
   <ItemRef itemRef="21"/>
   <ItemRef itemRef="22"/>
  </Itemset>
  <Itemset id="311" numberOfItems="3">
   <ItemRef itemRef="7"/>
   <ItemRef itemRef="15"/>
   <ItemRef itemRef="30"/>
  </Itemset>
  <Itemset id="312" numberOfItems="3">
   <ItemRef itemRef="7"/>
   <ItemRef itemRef="21"/>
   <ItemRef itemRef="30"/>
  </Itemset>
  <Itemset id="313" numberOfItems="3">
   <ItemRef itemRef="15"/>
   <ItemRef itemRef="21"/>
   <ItemRef itemRef="30"/>
  </Itemset>
  <Itemset id="314" numberOfItems="3">
   <ItemRef itemRef="7"/>
   <ItemRef itemRef="14"/>
   <ItemRef itemRef="16"/>
  </Itemset>
  <Itemset id="315" numberOfItems="3">
   <ItemRef itemRef="14"/>
   <ItemRef itemRef="15"/>
   <ItemRef itemRef="16"/>
  </Itemset>
  <Itemset id="316" numberOfItems="3">
   <ItemRef itemRef="7"/>
   <ItemRef itemRef="14"/>
   <ItemRef itemRef="27"/>
  </Itemset>
  <Itemset id="317" numberOfItems="3">
   <ItemRef itemRef="14"/>
   <ItemRef itemRef="15"/>
   <ItemRef itemRef="27"/>
  </Itemset>
  <Itemset id="318" numberOfItems="3">
   <ItemRef itemRef="7"/>
   <ItemRef itemRef="14"/>
   <ItemRef itemRef="22"/>
  </Itemset>
  <Itemset id="319" numberOfItems="3">
   <ItemRef itemRef="14"/>
   <ItemRef itemRef="15"/>
   <ItemRef itemRef="22"/>
  </Itemset>
  <Itemset id="320" numberOfItems="3">
   <ItemRef itemRef="7"/>
   <ItemRef itemRef="14"/>
   <ItemRef itemRef="30"/>
  </Itemset>
  <Itemset id="321" numberOfItems="3">
   <ItemRef itemRef="14"/>
   <ItemRef itemRef="15"/>
   <ItemRef itemRef="30"/>
  </Itemset>
  <Itemset id="322" numberOfItems="3">
   <ItemRef itemRef="7"/>
   <ItemRef itemRef="16"/>
   <ItemRef itemRef="27"/>
  </Itemset>
  <Itemset id="323" numberOfItems="3">
   <ItemRef itemRef="15"/>
   <ItemRef itemRef="16"/>
   <ItemRef itemRef="27"/>
  </Itemset>
  <Itemset id="324" numberOfItems="3">
   <ItemRef itemRef="7"/>
   <ItemRef itemRef="16"/>
   <ItemRef itemRef="22"/>
  </Itemset>
  <Itemset id="325" numberOfItems="3">
   <ItemRef itemRef="15"/>
   <ItemRef itemRef="16"/>
   <ItemRef itemRef="22"/>
  </Itemset>
  <Itemset id="326" numberOfItems="3">
   <ItemRef itemRef="7"/>
   <ItemRef itemRef="16"/>
   <ItemRef itemRef="30"/>
  </Itemset>
  <Itemset id="327" numberOfItems="3">
   <ItemRef itemRef="15"/>
   <ItemRef itemRef="16"/>
   <ItemRef itemRef="30"/>
  </Itemset>
  <Itemset id="328" numberOfItems="3">
   <ItemRef itemRef="7"/>
   <ItemRef itemRef="22"/>
   <ItemRef itemRef="27"/>
  </Itemset>
  <Itemset id="329" numberOfItems="3">
   <ItemRef itemRef="15"/>
   <ItemRef itemRef="22"/>
   <ItemRef itemRef="27"/>
  </Itemset>
  <Itemset id="330" numberOfItems="3">
   <ItemRef itemRef="7"/>
   <ItemRef itemRef="27"/>
   <ItemRef itemRef="30"/>
  </Itemset>
  <Itemset id="331" numberOfItems="3">
   <ItemRef itemRef="15"/>
   <ItemRef itemRef="27"/>
   <ItemRef itemRef="30"/>
  </Itemset>
  <Itemset id="332" numberOfItems="3">
   <ItemRef itemRef="7"/>
   <ItemRef itemRef="22"/>
   <ItemRef itemRef="30"/>
  </Itemset>
  <Itemset id="333" numberOfItems="3">
   <ItemRef itemRef="15"/>
   <ItemRef itemRef="22"/>
   <ItemRef itemRef="30"/>
  </Itemset>
  <Itemset id="334" numberOfItems="3">
   <ItemRef itemRef="14"/>
   <ItemRef itemRef="16"/>
   <ItemRef itemRef="21"/>
  </Itemset>
  <Itemset id="335" numberOfItems="3">
   <ItemRef itemRef="14"/>
   <ItemRef itemRef="21"/>
   <ItemRef itemRef="27"/>
  </Itemset>
  <Itemset id="336" numberOfItems="3">
   <ItemRef itemRef="14"/>
   <ItemRef itemRef="21"/>
   <ItemRef itemRef="22"/>
  </Itemset>
  <Itemset id="337" numberOfItems="3">
   <ItemRef itemRef="14"/>
   <ItemRef itemRef="21"/>
   <ItemRef itemRef="30"/>
  </Itemset>
  <Itemset id="338" numberOfItems="3">
   <ItemRef itemRef="16"/>
   <ItemRef itemRef="21"/>
   <ItemRef itemRef="27"/>
  </Itemset>
  <Itemset id="339" numberOfItems="3">
   <ItemRef itemRef="16"/>
   <ItemRef itemRef="21"/>
   <ItemRef itemRef="22"/>
  </Itemset>
  <Itemset id="340" numberOfItems="3">
   <ItemRef itemRef="16"/>
   <ItemRef itemRef="21"/>
   <ItemRef itemRef="30"/>
  </Itemset>
  <Itemset id="341" numberOfItems="3">
   <ItemRef itemRef="21"/>
   <ItemRef itemRef="22"/>
   <ItemRef itemRef="27"/>
  </Itemset>
  <Itemset id="342" numberOfItems="3">
   <ItemRef itemRef="21"/>
   <ItemRef itemRef="27"/>
   <ItemRef itemRef="30"/>
  </Itemset>
  <Itemset id="343" numberOfItems="3">
   <ItemRef itemRef="21"/>
   <ItemRef itemRef="22"/>
   <ItemRef itemRef="30"/>
  </Itemset>
  <Itemset id="344" numberOfItems="3">
   <ItemRef itemRef="9"/>
   <ItemRef itemRef="26"/>
   <ItemRef itemRef="27"/>
  </Itemset>
  <Itemset id="345" numberOfItems="3">
   <ItemRef itemRef="9"/>
   <ItemRef itemRef="22"/>
   <ItemRef itemRef="26"/>
  </Itemset>
  <Itemset id="346" numberOfItems="3">
   <ItemRef itemRef="9"/>
   <ItemRef itemRef="26"/>
   <ItemRef itemRef="30"/>
  </Itemset>
  <Itemset id="347" numberOfItems="3">
   <ItemRef itemRef="14"/>
   <ItemRef itemRef="16"/>
   <ItemRef itemRef="26"/>
  </Itemset>
  <Itemset id="348" numberOfItems="3">
   <ItemRef itemRef="14"/>
   <ItemRef itemRef="26"/>
   <ItemRef itemRef="27"/>
  </Itemset>
  <Itemset id="349" numberOfItems="3">
   <ItemRef itemRef="14"/>
   <ItemRef itemRef="22"/>
   <ItemRef itemRef="26"/>
  </Itemset>
  <Itemset id="350" numberOfItems="3">
   <ItemRef itemRef="14"/>
   <ItemRef itemRef="26"/>
   <ItemRef itemRef="30"/>
  </Itemset>
  <Itemset id="351" numberOfItems="3">
   <ItemRef itemRef="16"/>
   <ItemRef itemRef="26"/>
   <ItemRef itemRef="27"/>
  </Itemset>
  <Itemset id="352" numberOfItems="3">
   <ItemRef itemRef="16"/>
   <ItemRef itemRef="22"/>
   <ItemRef itemRef="26"/>
  </Itemset>
  <Itemset id="353" numberOfItems="3">
   <ItemRef itemRef="16"/>
   <ItemRef itemRef="26"/>
   <ItemRef itemRef="30"/>
  </Itemset>
  <Itemset id="354" numberOfItems="3">
   <ItemRef itemRef="22"/>
   <ItemRef itemRef="26"/>
   <ItemRef itemRef="27"/>
  </Itemset>
  <Itemset id="355" numberOfItems="3">
   <ItemRef itemRef="26"/>
   <ItemRef itemRef="27"/>
   <ItemRef itemRef="30"/>
  </Itemset>
  <Itemset id="356" numberOfItems="3">
   <ItemRef itemRef="22"/>
   <ItemRef itemRef="26"/>
   <ItemRef itemRef="30"/>
  </Itemset>
  <Itemset id="357" numberOfItems="3">
   <ItemRef itemRef="9"/>
   <ItemRef itemRef="17"/>
   <ItemRef itemRef="27"/>
  </Itemset>
  <Itemset id="358" numberOfItems="3">
   <ItemRef itemRef="9"/>
   <ItemRef itemRef="17"/>
   <ItemRef itemRef="22"/>
  </Itemset>
  <Itemset id="359" numberOfItems="3">
   <ItemRef itemRef="9"/>
   <ItemRef itemRef="17"/>
   <ItemRef itemRef="30"/>
  </Itemset>
  <Itemset id="360" numberOfItems="3">
   <ItemRef itemRef="9"/>
   <ItemRef itemRef="14"/>
   <ItemRef itemRef="16"/>
  </Itemset>
  <Itemset id="361" numberOfItems="3">
   <ItemRef itemRef="9"/>
   <ItemRef itemRef="14"/>
   <ItemRef itemRef="27"/>
  </Itemset>
  <Itemset id="362" numberOfItems="3">
   <ItemRef itemRef="9"/>
   <ItemRef itemRef="14"/>
   <ItemRef itemRef="22"/>
  </Itemset>
  <Itemset id="363" numberOfItems="3">
   <ItemRef itemRef="9"/>
   <ItemRef itemRef="14"/>
   <ItemRef itemRef="30"/>
  </Itemset>
  <Itemset id="364" numberOfItems="3">
   <ItemRef itemRef="9"/>
   <ItemRef itemRef="16"/>
   <ItemRef itemRef="27"/>
  </Itemset>
  <Itemset id="365" numberOfItems="3">
   <ItemRef itemRef="9"/>
   <ItemRef itemRef="16"/>
   <ItemRef itemRef="22"/>
  </Itemset>
  <Itemset id="366" numberOfItems="3">
   <ItemRef itemRef="9"/>
   <ItemRef itemRef="16"/>
   <ItemRef itemRef="30"/>
  </Itemset>
  <Itemset id="367" numberOfItems="3">
   <ItemRef itemRef="9"/>
   <ItemRef itemRef="22"/>
   <ItemRef itemRef="27"/>
  </Itemset>
  <Itemset id="368" numberOfItems="3">
   <ItemRef itemRef="9"/>
   <ItemRef itemRef="27"/>
   <ItemRef itemRef="30"/>
  </Itemset>
  <Itemset id="369" numberOfItems="3">
   <ItemRef itemRef="9"/>
   <ItemRef itemRef="22"/>
   <ItemRef itemRef="30"/>
  </Itemset>
  <Itemset id="370" numberOfItems="3">
   <ItemRef itemRef="14"/>
   <ItemRef itemRef="16"/>
   <ItemRef itemRef="17"/>
  </Itemset>
  <Itemset id="371" numberOfItems="3">
   <ItemRef itemRef="14"/>
   <ItemRef itemRef="17"/>
   <ItemRef itemRef="27"/>
  </Itemset>
  <Itemset id="372" numberOfItems="3">
   <ItemRef itemRef="14"/>
   <ItemRef itemRef="17"/>
   <ItemRef itemRef="22"/>
  </Itemset>
  <Itemset id="373" numberOfItems="3">
   <ItemRef itemRef="14"/>
   <ItemRef itemRef="17"/>
   <ItemRef itemRef="30"/>
  </Itemset>
  <Itemset id="374" numberOfItems="3">
   <ItemRef itemRef="16"/>
   <ItemRef itemRef="17"/>
   <ItemRef itemRef="27"/>
  </Itemset>
  <Itemset id="375" numberOfItems="3">
   <ItemRef itemRef="16"/>
   <ItemRef itemRef="17"/>
   <ItemRef itemRef="22"/>
  </Itemset>
  <Itemset id="376" numberOfItems="3">
   <ItemRef itemRef="16"/>
   <ItemRef itemRef="17"/>
   <ItemRef itemRef="30"/>
  </Itemset>
  <Itemset id="377" numberOfItems="3">
   <ItemRef itemRef="17"/>
   <ItemRef itemRef="22"/>
   <ItemRef itemRef="27"/>
  </Itemset>
  <Itemset id="378" numberOfItems="3">
   <ItemRef itemRef="17"/>
   <ItemRef itemRef="27"/>
   <ItemRef itemRef="30"/>
  </Itemset>
  <Itemset id="379" numberOfItems="3">
   <ItemRef itemRef="17"/>
   <ItemRef itemRef="22"/>
   <ItemRef itemRef="30"/>
  </Itemset>
  <Itemset id="380" numberOfItems="3">
   <ItemRef itemRef="14"/>
   <ItemRef itemRef="16"/>
   <ItemRef itemRef="27"/>
  </Itemset>
  <Itemset id="381" numberOfItems="3">
   <ItemRef itemRef="14"/>
   <ItemRef itemRef="16"/>
   <ItemRef itemRef="22"/>
  </Itemset>
  <Itemset id="382" numberOfItems="3">
   <ItemRef itemRef="14"/>
   <ItemRef itemRef="22"/>
   <ItemRef itemRef="27"/>
  </Itemset>
  <Itemset id="383" numberOfItems="3">
   <ItemRef itemRef="14"/>
   <ItemRef itemRef="16"/>
   <ItemRef itemRef="30"/>
  </Itemset>
  <Itemset id="384" numberOfItems="3">
   <ItemRef itemRef="14"/>
   <ItemRef itemRef="27"/>
   <ItemRef itemRef="30"/>
  </Itemset>
  <Itemset id="385" numberOfItems="3">
   <ItemRef itemRef="14"/>
   <ItemRef itemRef="22"/>
   <ItemRef itemRef="30"/>
  </Itemset>
  <Itemset id="386" numberOfItems="3">
   <ItemRef itemRef="16"/>
   <ItemRef itemRef="22"/>
   <ItemRef itemRef="27"/>
  </Itemset>
  <Itemset id="387" numberOfItems="3">
   <ItemRef itemRef="16"/>
   <ItemRef itemRef="27"/>
   <ItemRef itemRef="30"/>
  </Itemset>
  <Itemset id="388" numberOfItems="3">
   <ItemRef itemRef="16"/>
   <ItemRef itemRef="22"/>
   <ItemRef itemRef="30"/>
  </Itemset>
  <Itemset id="389" numberOfItems="4">
   <ItemRef itemRef="8"/>
   <ItemRef itemRef="16"/>
   <ItemRef itemRef="22"/>
   <ItemRef itemRef="27"/>
  </Itemset>
  <Itemset id="390" numberOfItems="4">
   <ItemRef itemRef="8"/>
   <ItemRef itemRef="16"/>
   <ItemRef itemRef="27"/>
   <ItemRef itemRef="30"/>
  </Itemset>
  <Itemset id="391" numberOfItems="4">
   <ItemRef itemRef="8"/>
   <ItemRef itemRef="16"/>
   <ItemRef itemRef="22"/>
   <ItemRef itemRef="30"/>
  </Itemset>
  <Itemset id="392" numberOfItems="4">
   <ItemRef itemRef="10"/>
   <ItemRef itemRef="16"/>
   <ItemRef itemRef="22"/>
   <ItemRef itemRef="27"/>
  </Itemset>
  <Itemset id="393" numberOfItems="4">
   <ItemRef itemRef="10"/>
   <ItemRef itemRef="16"/>
   <ItemRef itemRef="27"/>
   <ItemRef itemRef="30"/>
  </Itemset>
  <Itemset id="394" numberOfItems="4">
   <ItemRef itemRef="10"/>
   <ItemRef itemRef="16"/>
   <ItemRef itemRef="22"/>
   <ItemRef itemRef="30"/>
  </Itemset>
  <Itemset id="395" numberOfItems="4">
   <ItemRef itemRef="16"/>
   <ItemRef itemRef="20"/>
   <ItemRef itemRef="22"/>
   <ItemRef itemRef="27"/>
  </Itemset>
  <Itemset id="396" numberOfItems="4">
   <ItemRef itemRef="16"/>
   <ItemRef itemRef="20"/>
   <ItemRef itemRef="27"/>
   <ItemRef itemRef="30"/>
  </Itemset>
  <Itemset id="397" numberOfItems="4">
   <ItemRef itemRef="16"/>
   <ItemRef itemRef="20"/>
   <ItemRef itemRef="22"/>
   <ItemRef itemRef="30"/>
  </Itemset>
  <Itemset id="398" numberOfItems="4">
   <ItemRef itemRef="4"/>
   <ItemRef itemRef="22"/>
   <ItemRef itemRef="23"/>
   <ItemRef itemRef="27"/>
  </Itemset>
  <Itemset id="399" numberOfItems="4">
   <ItemRef itemRef="4"/>
   <ItemRef itemRef="23"/>
   <ItemRef itemRef="27"/>
   <ItemRef itemRef="30"/>
  </Itemset>
  <Itemset id="400" numberOfItems="4">
   <ItemRef itemRef="4"/>
   <ItemRef itemRef="22"/>
   <ItemRef itemRef="23"/>
   <ItemRef itemRef="30"/>
  </Itemset>
  <Itemset id="401" numberOfItems="4">
   <ItemRef itemRef="16"/>
   <ItemRef itemRef="22"/>
   <ItemRef itemRef="23"/>
   <ItemRef itemRef="27"/>
  </Itemset>
  <Itemset id="402" numberOfItems="4">
   <ItemRef itemRef="16"/>
   <ItemRef itemRef="23"/>
   <ItemRef itemRef="27"/>
   <ItemRef itemRef="30"/>
  </Itemset>
  <Itemset id="403" numberOfItems="4">
   <ItemRef itemRef="16"/>
   <ItemRef itemRef="22"/>
   <ItemRef itemRef="23"/>
   <ItemRef itemRef="30"/>
  </Itemset>
  <Itemset id="404" numberOfItems="4">
   <ItemRef itemRef="1"/>
   <ItemRef itemRef="16"/>
   <ItemRef itemRef="22"/>
   <ItemRef itemRef="27"/>
  </Itemset>
  <Itemset id="405" numberOfItems="4">
   <ItemRef itemRef="1"/>
   <ItemRef itemRef="16"/>
   <ItemRef itemRef="27"/>
   <ItemRef itemRef="30"/>
  </Itemset>
  <Itemset id="406" numberOfItems="4">
   <ItemRef itemRef="1"/>
   <ItemRef itemRef="16"/>
   <ItemRef itemRef="22"/>
   <ItemRef itemRef="30"/>
  </Itemset>
  <Itemset id="407" numberOfItems="4">
   <ItemRef itemRef="16"/>
   <ItemRef itemRef="18"/>
   <ItemRef itemRef="22"/>
   <ItemRef itemRef="27"/>
  </Itemset>
  <Itemset id="408" numberOfItems="4">
   <ItemRef itemRef="16"/>
   <ItemRef itemRef="18"/>
   <ItemRef itemRef="27"/>
   <ItemRef itemRef="30"/>
  </Itemset>
  <Itemset id="409" numberOfItems="4">
   <ItemRef itemRef="16"/>
   <ItemRef itemRef="18"/>
   <ItemRef itemRef="22"/>
   <ItemRef itemRef="30"/>
  </Itemset>
  <Itemset id="410" numberOfItems="4">
   <ItemRef itemRef="11"/>
   <ItemRef itemRef="16"/>
   <ItemRef itemRef="22"/>
   <ItemRef itemRef="27"/>
  </Itemset>
  <Itemset id="411" numberOfItems="4">
   <ItemRef itemRef="11"/>
   <ItemRef itemRef="16"/>
   <ItemRef itemRef="27"/>
   <ItemRef itemRef="30"/>
  </Itemset>
  <Itemset id="412" numberOfItems="4">
   <ItemRef itemRef="11"/>
   <ItemRef itemRef="16"/>
   <ItemRef itemRef="22"/>
   <ItemRef itemRef="30"/>
  </Itemset>
  <Itemset id="413" numberOfItems="4">
   <ItemRef itemRef="6"/>
   <ItemRef itemRef="14"/>
   <ItemRef itemRef="16"/>
   <ItemRef itemRef="27"/>
  </Itemset>
  <Itemset id="414" numberOfItems="4">
   <ItemRef itemRef="6"/>
   <ItemRef itemRef="14"/>
   <ItemRef itemRef="16"/>
   <ItemRef itemRef="22"/>
  </Itemset>
  <Itemset id="415" numberOfItems="4">
   <ItemRef itemRef="6"/>
   <ItemRef itemRef="14"/>
   <ItemRef itemRef="22"/>
   <ItemRef itemRef="27"/>
  </Itemset>
  <Itemset id="416" numberOfItems="4">
   <ItemRef itemRef="6"/>
   <ItemRef itemRef="14"/>
   <ItemRef itemRef="16"/>
   <ItemRef itemRef="30"/>
  </Itemset>
  <Itemset id="417" numberOfItems="4">
   <ItemRef itemRef="6"/>
   <ItemRef itemRef="14"/>
   <ItemRef itemRef="27"/>
   <ItemRef itemRef="30"/>
  </Itemset>
  <Itemset id="418" numberOfItems="4">
   <ItemRef itemRef="6"/>
   <ItemRef itemRef="14"/>
   <ItemRef itemRef="22"/>
   <ItemRef itemRef="30"/>
  </Itemset>
  <Itemset id="419" numberOfItems="4">
   <ItemRef itemRef="6"/>
   <ItemRef itemRef="16"/>
   <ItemRef itemRef="22"/>
   <ItemRef itemRef="27"/>
  </Itemset>
  <Itemset id="420" numberOfItems="4">
   <ItemRef itemRef="6"/>
   <ItemRef itemRef="16"/>
   <ItemRef itemRef="27"/>
   <ItemRef itemRef="30"/>
  </Itemset>
  <Itemset id="421" numberOfItems="4">
   <ItemRef itemRef="6"/>
   <ItemRef itemRef="16"/>
   <ItemRef itemRef="22"/>
   <ItemRef itemRef="30"/>
  </Itemset>
  <Itemset id="422" numberOfItems="4">
   <ItemRef itemRef="12"/>
   <ItemRef itemRef="16"/>
   <ItemRef itemRef="22"/>
   <ItemRef itemRef="27"/>
  </Itemset>
  <Itemset id="423" numberOfItems="4">
   <ItemRef itemRef="12"/>
   <ItemRef itemRef="16"/>
   <ItemRef itemRef="27"/>
   <ItemRef itemRef="30"/>
  </Itemset>
  <Itemset id="424" numberOfItems="4">
   <ItemRef itemRef="12"/>
   <ItemRef itemRef="16"/>
   <ItemRef itemRef="22"/>
   <ItemRef itemRef="30"/>
  </Itemset>
  <Itemset id="425" numberOfItems="4">
   <ItemRef itemRef="4"/>
   <ItemRef itemRef="16"/>
   <ItemRef itemRef="22"/>
   <ItemRef itemRef="27"/>
  </Itemset>
  <Itemset id="426" numberOfItems="4">
   <ItemRef itemRef="4"/>
   <ItemRef itemRef="16"/>
   <ItemRef itemRef="27"/>
   <ItemRef itemRef="30"/>
  </Itemset>
  <Itemset id="427" numberOfItems="4">
   <ItemRef itemRef="4"/>
   <ItemRef itemRef="16"/>
   <ItemRef itemRef="22"/>
   <ItemRef itemRef="30"/>
  </Itemset>
  <Itemset id="428" numberOfItems="4">
   <ItemRef itemRef="3"/>
   <ItemRef itemRef="16"/>
   <ItemRef itemRef="22"/>
   <ItemRef itemRef="27"/>
  </Itemset>
  <Itemset id="429" numberOfItems="4">
   <ItemRef itemRef="3"/>
   <ItemRef itemRef="16"/>
   <ItemRef itemRef="27"/>
   <ItemRef itemRef="30"/>
  </Itemset>
  <Itemset id="430" numberOfItems="4">
   <ItemRef itemRef="3"/>
   <ItemRef itemRef="16"/>
   <ItemRef itemRef="22"/>
   <ItemRef itemRef="30"/>
  </Itemset>
  <Itemset id="431" numberOfItems="4">
   <ItemRef itemRef="2"/>
   <ItemRef itemRef="16"/>
   <ItemRef itemRef="25"/>
   <ItemRef itemRef="27"/>
  </Itemset>
  <Itemset id="432" numberOfItems="4">
   <ItemRef itemRef="2"/>
   <ItemRef itemRef="16"/>
   <ItemRef itemRef="22"/>
   <ItemRef itemRef="25"/>
  </Itemset>
  <Itemset id="433" numberOfItems="4">
   <ItemRef itemRef="2"/>
   <ItemRef itemRef="16"/>
   <ItemRef itemRef="22"/>
   <ItemRef itemRef="27"/>
  </Itemset>
  <Itemset id="434" numberOfItems="4">
   <ItemRef itemRef="16"/>
   <ItemRef itemRef="22"/>
   <ItemRef itemRef="25"/>
   <ItemRef itemRef="27"/>
  </Itemset>
  <Itemset id="435" numberOfItems="4">
   <ItemRef itemRef="2"/>
   <ItemRef itemRef="16"/>
   <ItemRef itemRef="25"/>
   <ItemRef itemRef="30"/>
  </Itemset>
  <Itemset id="436" numberOfItems="4">
   <ItemRef itemRef="2"/>
   <ItemRef itemRef="16"/>
   <ItemRef itemRef="27"/>
   <ItemRef itemRef="30"/>
  </Itemset>
  <Itemset id="437" numberOfItems="4">
   <ItemRef itemRef="16"/>
   <ItemRef itemRef="25"/>
   <ItemRef itemRef="27"/>
   <ItemRef itemRef="30"/>
  </Itemset>
  <Itemset id="438" numberOfItems="4">
   <ItemRef itemRef="2"/>
   <ItemRef itemRef="16"/>
   <ItemRef itemRef="22"/>
   <ItemRef itemRef="30"/>
  </Itemset>
  <Itemset id="439" numberOfItems="4">
   <ItemRef itemRef="16"/>
   <ItemRef itemRef="22"/>
   <ItemRef itemRef="25"/>
   <ItemRef itemRef="30"/>
  </Itemset>
  <Itemset id="440" numberOfItems="4">
   <ItemRef itemRef="2"/>
   <ItemRef itemRef="22"/>
   <ItemRef itemRef="25"/>
   <ItemRef itemRef="27"/>
  </Itemset>
  <Itemset id="441" numberOfItems="4">
   <ItemRef itemRef="2"/>
   <ItemRef itemRef="25"/>
   <ItemRef itemRef="27"/>
   <ItemRef itemRef="30"/>
  </Itemset>
  <Itemset id="442" numberOfItems="4">
   <ItemRef itemRef="2"/>
   <ItemRef itemRef="22"/>
   <ItemRef itemRef="25"/>
   <ItemRef itemRef="30"/>
  </Itemset>
  <Itemset id="443" numberOfItems="4">
   <ItemRef itemRef="2"/>
   <ItemRef itemRef="22"/>
   <ItemRef itemRef="27"/>
   <ItemRef itemRef="30"/>
  </Itemset>
  <Itemset id="444" numberOfItems="4">
   <ItemRef itemRef="22"/>
   <ItemRef itemRef="25"/>
   <ItemRef itemRef="27"/>
   <ItemRef itemRef="30"/>
  </Itemset>
  <Itemset id="445" numberOfItems="4">
   <ItemRef itemRef="14"/>
   <ItemRef itemRef="16"/>
   <ItemRef itemRef="27"/>
   <ItemRef itemRef="28"/>
  </Itemset>
  <Itemset id="446" numberOfItems="4">
   <ItemRef itemRef="14"/>
   <ItemRef itemRef="16"/>
   <ItemRef itemRef="28"/>
   <ItemRef itemRef="30"/>
  </Itemset>
  <Itemset id="447" numberOfItems="4">
   <ItemRef itemRef="14"/>
   <ItemRef itemRef="27"/>
   <ItemRef itemRef="28"/>
   <ItemRef itemRef="30"/>
  </Itemset>
  <Itemset id="448" numberOfItems="4">
   <ItemRef itemRef="16"/>
   <ItemRef itemRef="22"/>
   <ItemRef itemRef="27"/>
   <ItemRef itemRef="29"/>
  </Itemset>
  <Itemset id="449" numberOfItems="4">
   <ItemRef itemRef="16"/>
   <ItemRef itemRef="27"/>
   <ItemRef itemRef="29"/>
   <ItemRef itemRef="30"/>
  </Itemset>
  <Itemset id="450" numberOfItems="4">
   <ItemRef itemRef="16"/>
   <ItemRef itemRef="22"/>
   <ItemRef itemRef="29"/>
   <ItemRef itemRef="30"/>
  </Itemset>
  <Itemset id="451" numberOfItems="4">
   <ItemRef itemRef="14"/>
   <ItemRef itemRef="16"/>
   <ItemRef itemRef="25"/>
   <ItemRef itemRef="27"/>
  </Itemset>
  <Itemset id="452" numberOfItems="4">
   <ItemRef itemRef="14"/>
   <ItemRef itemRef="16"/>
   <ItemRef itemRef="22"/>
   <ItemRef itemRef="25"/>
  </Itemset>
  <Itemset id="453" numberOfItems="4">
   <ItemRef itemRef="14"/>
   <ItemRef itemRef="22"/>
   <ItemRef itemRef="25"/>
   <ItemRef itemRef="27"/>
  </Itemset>
  <Itemset id="454" numberOfItems="4">
   <ItemRef itemRef="14"/>
   <ItemRef itemRef="16"/>
   <ItemRef itemRef="25"/>
   <ItemRef itemRef="30"/>
  </Itemset>
  <Itemset id="455" numberOfItems="4">
   <ItemRef itemRef="14"/>
   <ItemRef itemRef="25"/>
   <ItemRef itemRef="27"/>
   <ItemRef itemRef="30"/>
  </Itemset>
  <Itemset id="456" numberOfItems="4">
   <ItemRef itemRef="14"/>
   <ItemRef itemRef="22"/>
   <ItemRef itemRef="25"/>
   <ItemRef itemRef="30"/>
  </Itemset>
  <Itemset id="457" numberOfItems="4">
   <ItemRef itemRef="5"/>
   <ItemRef itemRef="14"/>
   <ItemRef itemRef="16"/>
   <ItemRef itemRef="27"/>
  </Itemset>
  <Itemset id="458" numberOfItems="4">
   <ItemRef itemRef="5"/>
   <ItemRef itemRef="14"/>
   <ItemRef itemRef="16"/>
   <ItemRef itemRef="22"/>
  </Itemset>
  <Itemset id="459" numberOfItems="4">
   <ItemRef itemRef="5"/>
   <ItemRef itemRef="14"/>
   <ItemRef itemRef="22"/>
   <ItemRef itemRef="27"/>
  </Itemset>
  <Itemset id="460" numberOfItems="4">
   <ItemRef itemRef="5"/>
   <ItemRef itemRef="14"/>
   <ItemRef itemRef="16"/>
   <ItemRef itemRef="30"/>
  </Itemset>
  <Itemset id="461" numberOfItems="4">
   <ItemRef itemRef="5"/>
   <ItemRef itemRef="14"/>
   <ItemRef itemRef="27"/>
   <ItemRef itemRef="30"/>
  </Itemset>
  <Itemset id="462" numberOfItems="4">
   <ItemRef itemRef="5"/>
   <ItemRef itemRef="14"/>
   <ItemRef itemRef="22"/>
   <ItemRef itemRef="30"/>
  </Itemset>
  <Itemset id="463" numberOfItems="4">
   <ItemRef itemRef="5"/>
   <ItemRef itemRef="16"/>
   <ItemRef itemRef="22"/>
   <ItemRef itemRef="27"/>
  </Itemset>
  <Itemset id="464" numberOfItems="4">
   <ItemRef itemRef="5"/>
   <ItemRef itemRef="16"/>
   <ItemRef itemRef="27"/>
   <ItemRef itemRef="30"/>
  </Itemset>
  <Itemset id="465" numberOfItems="4">
   <ItemRef itemRef="5"/>
   <ItemRef itemRef="16"/>
   <ItemRef itemRef="22"/>
   <ItemRef itemRef="30"/>
  </Itemset>
  <Itemset id="466" numberOfItems="4">
   <ItemRef itemRef="9"/>
   <ItemRef itemRef="22"/>
   <ItemRef itemRef="24"/>
   <ItemRef itemRef="27"/>
  </Itemset>
  <Itemset id="467" numberOfItems="4">
   <ItemRef itemRef="9"/>
   <ItemRef itemRef="24"/>
   <ItemRef itemRef="27"/>
   <ItemRef itemRef="30"/>
  </Itemset>
  <Itemset id="468" numberOfItems="4">
   <ItemRef itemRef="9"/>
   <ItemRef itemRef="22"/>
   <ItemRef itemRef="24"/>
   <ItemRef itemRef="30"/>
  </Itemset>
  <Itemset id="469" numberOfItems="4">
   <ItemRef itemRef="16"/>
   <ItemRef itemRef="22"/>
   <ItemRef itemRef="24"/>
   <ItemRef itemRef="27"/>
  </Itemset>
  <Itemset id="470" numberOfItems="4">
   <ItemRef itemRef="16"/>
   <ItemRef itemRef="24"/>
   <ItemRef itemRef="27"/>
   <ItemRef itemRef="30"/>
  </Itemset>
  <Itemset id="471" numberOfItems="4">
   <ItemRef itemRef="16"/>
   <ItemRef itemRef="22"/>
   <ItemRef itemRef="24"/>
   <ItemRef itemRef="30"/>
  </Itemset>
  <Itemset id="472" numberOfItems="4">
   <ItemRef itemRef="13"/>
   <ItemRef itemRef="14"/>
   <ItemRef itemRef="16"/>
   <ItemRef itemRef="27"/>
  </Itemset>
  <Itemset id="473" numberOfItems="4">
   <ItemRef itemRef="13"/>
   <ItemRef itemRef="14"/>
   <ItemRef itemRef="16"/>
   <ItemRef itemRef="22"/>
  </Itemset>
  <Itemset id="474" numberOfItems="4">
   <ItemRef itemRef="13"/>
   <ItemRef itemRef="14"/>
   <ItemRef itemRef="22"/>
   <ItemRef itemRef="27"/>
  </Itemset>
  <Itemset id="475" numberOfItems="4">
   <ItemRef itemRef="13"/>
   <ItemRef itemRef="14"/>
   <ItemRef itemRef="16"/>
   <ItemRef itemRef="30"/>
  </Itemset>
  <Itemset id="476" numberOfItems="4">
   <ItemRef itemRef="13"/>
   <ItemRef itemRef="14"/>
   <ItemRef itemRef="27"/>
   <ItemRef itemRef="30"/>
  </Itemset>
  <Itemset id="477" numberOfItems="4">
   <ItemRef itemRef="13"/>
   <ItemRef itemRef="14"/>
   <ItemRef itemRef="22"/>
   <ItemRef itemRef="30"/>
  </Itemset>
  <Itemset id="478" numberOfItems="4">
   <ItemRef itemRef="13"/>
   <ItemRef itemRef="16"/>
   <ItemRef itemRef="22"/>
   <ItemRef itemRef="27"/>
  </Itemset>
  <Itemset id="479" numberOfItems="4">
   <ItemRef itemRef="13"/>
   <ItemRef itemRef="16"/>
   <ItemRef itemRef="27"/>
   <ItemRef itemRef="30"/>
  </Itemset>
  <Itemset id="480" numberOfItems="4">
   <ItemRef itemRef="13"/>
   <ItemRef itemRef="16"/>
   <ItemRef itemRef="22"/>
   <ItemRef itemRef="30"/>
  </Itemset>
  <Itemset id="481" numberOfItems="4">
   <ItemRef itemRef="7"/>
   <ItemRef itemRef="14"/>
   <ItemRef itemRef="15"/>
   <ItemRef itemRef="21"/>
  </Itemset>
  <Itemset id="482" numberOfItems="4">
   <ItemRef itemRef="7"/>
   <ItemRef itemRef="14"/>
   <ItemRef itemRef="15"/>
   <ItemRef itemRef="16"/>
  </Itemset>
  <Itemset id="483" numberOfItems="4">
   <ItemRef itemRef="7"/>
   <ItemRef itemRef="14"/>
   <ItemRef itemRef="16"/>
   <ItemRef itemRef="21"/>
  </Itemset>
  <Itemset id="484" numberOfItems="4">
   <ItemRef itemRef="14"/>
   <ItemRef itemRef="15"/>
   <ItemRef itemRef="16"/>
   <ItemRef itemRef="21"/>
  </Itemset>
  <Itemset id="485" numberOfItems="4">
   <ItemRef itemRef="7"/>
   <ItemRef itemRef="14"/>
   <ItemRef itemRef="15"/>
   <ItemRef itemRef="27"/>
  </Itemset>
  <Itemset id="486" numberOfItems="4">
   <ItemRef itemRef="7"/>
   <ItemRef itemRef="14"/>
   <ItemRef itemRef="21"/>
   <ItemRef itemRef="27"/>
  </Itemset>
  <Itemset id="487" numberOfItems="4">
   <ItemRef itemRef="14"/>
   <ItemRef itemRef="15"/>
   <ItemRef itemRef="21"/>
   <ItemRef itemRef="27"/>
  </Itemset>
  <Itemset id="488" numberOfItems="4">
   <ItemRef itemRef="7"/>
   <ItemRef itemRef="14"/>
   <ItemRef itemRef="15"/>
   <ItemRef itemRef="22"/>
  </Itemset>
  <Itemset id="489" numberOfItems="4">
   <ItemRef itemRef="7"/>
   <ItemRef itemRef="14"/>
   <ItemRef itemRef="21"/>
   <ItemRef itemRef="22"/>
  </Itemset>
  <Itemset id="490" numberOfItems="4">
   <ItemRef itemRef="14"/>
   <ItemRef itemRef="15"/>
   <ItemRef itemRef="21"/>
   <ItemRef itemRef="22"/>
  </Itemset>
  <Itemset id="491" numberOfItems="4">
   <ItemRef itemRef="7"/>
   <ItemRef itemRef="14"/>
   <ItemRef itemRef="15"/>
   <ItemRef itemRef="30"/>
  </Itemset>
  <Itemset id="492" numberOfItems="4">
   <ItemRef itemRef="7"/>
   <ItemRef itemRef="14"/>
   <ItemRef itemRef="21"/>
   <ItemRef itemRef="30"/>
  </Itemset>
  <Itemset id="493" numberOfItems="4">
   <ItemRef itemRef="14"/>
   <ItemRef itemRef="15"/>
   <ItemRef itemRef="21"/>
   <ItemRef itemRef="30"/>
  </Itemset>
  <Itemset id="494" numberOfItems="4">
   <ItemRef itemRef="7"/>
   <ItemRef itemRef="15"/>
   <ItemRef itemRef="16"/>
   <ItemRef itemRef="21"/>
  </Itemset>
  <Itemset id="495" numberOfItems="4">
   <ItemRef itemRef="7"/>
   <ItemRef itemRef="15"/>
   <ItemRef itemRef="16"/>
   <ItemRef itemRef="27"/>
  </Itemset>
  <Itemset id="496" numberOfItems="4">
   <ItemRef itemRef="7"/>
   <ItemRef itemRef="16"/>
   <ItemRef itemRef="21"/>
   <ItemRef itemRef="27"/>
  </Itemset>
  <Itemset id="497" numberOfItems="4">
   <ItemRef itemRef="15"/>
   <ItemRef itemRef="16"/>
   <ItemRef itemRef="21"/>
   <ItemRef itemRef="27"/>
  </Itemset>
  <Itemset id="498" numberOfItems="4">
   <ItemRef itemRef="7"/>
   <ItemRef itemRef="15"/>
   <ItemRef itemRef="16"/>
   <ItemRef itemRef="22"/>
  </Itemset>
  <Itemset id="499" numberOfItems="4">
   <ItemRef itemRef="7"/>
   <ItemRef itemRef="16"/>
   <ItemRef itemRef="21"/>
   <ItemRef itemRef="22"/>
  </Itemset>
  <Itemset id="500" numberOfItems="4">
   <ItemRef itemRef="15"/>
   <ItemRef itemRef="16"/>
   <ItemRef itemRef="21"/>
   <ItemRef itemRef="22"/>
  </Itemset>
  <Itemset id="501" numberOfItems="4">
   <ItemRef itemRef="7"/>
   <ItemRef itemRef="15"/>
   <ItemRef itemRef="16"/>
   <ItemRef itemRef="30"/>
  </Itemset>
  <Itemset id="502" numberOfItems="4">
   <ItemRef itemRef="7"/>
   <ItemRef itemRef="16"/>
   <ItemRef itemRef="21"/>
   <ItemRef itemRef="30"/>
  </Itemset>
  <Itemset id="503" numberOfItems="4">
   <ItemRef itemRef="15"/>
   <ItemRef itemRef="16"/>
   <ItemRef itemRef="21"/>
   <ItemRef itemRef="30"/>
  </Itemset>
  <Itemset id="504" numberOfItems="4">
   <ItemRef itemRef="7"/>
   <ItemRef itemRef="15"/>
   <ItemRef itemRef="21"/>
   <ItemRef itemRef="27"/>
  </Itemset>
  <Itemset id="505" numberOfItems="4">
   <ItemRef itemRef="7"/>
   <ItemRef itemRef="15"/>
   <ItemRef itemRef="21"/>
   <ItemRef itemRef="22"/>
  </Itemset>
  <Itemset id="506" numberOfItems="4">
   <ItemRef itemRef="7"/>
   <ItemRef itemRef="15"/>
   <ItemRef itemRef="22"/>
   <ItemRef itemRef="27"/>
  </Itemset>
  <Itemset id="507" numberOfItems="4">
   <ItemRef itemRef="7"/>
   <ItemRef itemRef="21"/>
   <ItemRef itemRef="22"/>
   <ItemRef itemRef="27"/>
  </Itemset>
  <Itemset id="508" numberOfItems="4">
   <ItemRef itemRef="15"/>
   <ItemRef itemRef="21"/>
   <ItemRef itemRef="22"/>
   <ItemRef itemRef="27"/>
  </Itemset>
  <Itemset id="509" numberOfItems="4">
   <ItemRef itemRef="7"/>
   <ItemRef itemRef="15"/>
   <ItemRef itemRef="21"/>
   <ItemRef itemRef="30"/>
  </Itemset>
  <Itemset id="510" numberOfItems="4">
   <ItemRef itemRef="7"/>
   <ItemRef itemRef="15"/>
   <ItemRef itemRef="27"/>
   <ItemRef itemRef="30"/>
  </Itemset>
  <Itemset id="511" numberOfItems="4">
   <ItemRef itemRef="7"/>
   <ItemRef itemRef="21"/>
   <ItemRef itemRef="27"/>
   <ItemRef itemRef="30"/>
  </Itemset>
  <Itemset id="512" numberOfItems="4">
   <ItemRef itemRef="15"/>
   <ItemRef itemRef="21"/>
   <ItemRef itemRef="27"/>
   <ItemRef itemRef="30"/>
  </Itemset>
  <Itemset id="513" numberOfItems="4">
   <ItemRef itemRef="7"/>
   <ItemRef itemRef="15"/>
   <ItemRef itemRef="22"/>
   <ItemRef itemRef="30"/>
  </Itemset>
  <Itemset id="514" numberOfItems="4">
   <ItemRef itemRef="7"/>
   <ItemRef itemRef="21"/>
   <ItemRef itemRef="22"/>
   <ItemRef itemRef="30"/>
  </Itemset>
  <Itemset id="515" numberOfItems="4">
   <ItemRef itemRef="15"/>
   <ItemRef itemRef="21"/>
   <ItemRef itemRef="22"/>
   <ItemRef itemRef="30"/>
  </Itemset>
  <Itemset id="516" numberOfItems="4">
   <ItemRef itemRef="7"/>
   <ItemRef itemRef="14"/>
   <ItemRef itemRef="16"/>
   <ItemRef itemRef="27"/>
  </Itemset>
  <Itemset id="517" numberOfItems="4">
   <ItemRef itemRef="14"/>
   <ItemRef itemRef="15"/>
   <ItemRef itemRef="16"/>
   <ItemRef itemRef="27"/>
  </Itemset>
  <Itemset id="518" numberOfItems="4">
   <ItemRef itemRef="7"/>
   <ItemRef itemRef="14"/>
   <ItemRef itemRef="16"/>
   <ItemRef itemRef="22"/>
  </Itemset>
  <Itemset id="519" numberOfItems="4">
   <ItemRef itemRef="14"/>
   <ItemRef itemRef="15"/>
   <ItemRef itemRef="16"/>
   <ItemRef itemRef="22"/>
  </Itemset>
  <Itemset id="520" numberOfItems="4">
   <ItemRef itemRef="7"/>
   <ItemRef itemRef="14"/>
   <ItemRef itemRef="16"/>
   <ItemRef itemRef="30"/>
  </Itemset>
  <Itemset id="521" numberOfItems="4">
   <ItemRef itemRef="14"/>
   <ItemRef itemRef="15"/>
   <ItemRef itemRef="16"/>
   <ItemRef itemRef="30"/>
  </Itemset>
  <Itemset id="522" numberOfItems="4">
   <ItemRef itemRef="7"/>
   <ItemRef itemRef="14"/>
   <ItemRef itemRef="22"/>
   <ItemRef itemRef="27"/>
  </Itemset>
  <Itemset id="523" numberOfItems="4">
   <ItemRef itemRef="14"/>
   <ItemRef itemRef="15"/>
   <ItemRef itemRef="22"/>
   <ItemRef itemRef="27"/>
  </Itemset>
  <Itemset id="524" numberOfItems="4">
   <ItemRef itemRef="7"/>
   <ItemRef itemRef="14"/>
   <ItemRef itemRef="27"/>
   <ItemRef itemRef="30"/>
  </Itemset>
  <Itemset id="525" numberOfItems="4">
   <ItemRef itemRef="14"/>
   <ItemRef itemRef="15"/>
   <ItemRef itemRef="27"/>
   <ItemRef itemRef="30"/>
  </Itemset>
  <Itemset id="526" numberOfItems="4">
   <ItemRef itemRef="7"/>
   <ItemRef itemRef="14"/>
   <ItemRef itemRef="22"/>
   <ItemRef itemRef="30"/>
  </Itemset>
  <Itemset id="527" numberOfItems="4">
   <ItemRef itemRef="14"/>
   <ItemRef itemRef="15"/>
   <ItemRef itemRef="22"/>
   <ItemRef itemRef="30"/>
  </Itemset>
  <Itemset id="528" numberOfItems="4">
   <ItemRef itemRef="7"/>
   <ItemRef itemRef="16"/>
   <ItemRef itemRef="22"/>
   <ItemRef itemRef="27"/>
  </Itemset>
  <Itemset id="529" numberOfItems="4">
   <ItemRef itemRef="15"/>
   <ItemRef itemRef="16"/>
   <ItemRef itemRef="22"/>
   <ItemRef itemRef="27"/>
  </Itemset>
  <Itemset id="530" numberOfItems="4">
   <ItemRef itemRef="7"/>
   <ItemRef itemRef="16"/>
   <ItemRef itemRef="27"/>
   <ItemRef itemRef="30"/>
  </Itemset>
  <Itemset id="531" numberOfItems="4">
   <ItemRef itemRef="15"/>
   <ItemRef itemRef="16"/>
   <ItemRef itemRef="27"/>
   <ItemRef itemRef="30"/>
  </Itemset>
  <Itemset id="532" numberOfItems="4">
   <ItemRef itemRef="7"/>
   <ItemRef itemRef="16"/>
   <ItemRef itemRef="22"/>
   <ItemRef itemRef="30"/>
  </Itemset>
  <Itemset id="533" numberOfItems="4">
   <ItemRef itemRef="15"/>
   <ItemRef itemRef="16"/>
   <ItemRef itemRef="22"/>
   <ItemRef itemRef="30"/>
  </Itemset>
  <Itemset id="534" numberOfItems="4">
   <ItemRef itemRef="7"/>
   <ItemRef itemRef="22"/>
   <ItemRef itemRef="27"/>
   <ItemRef itemRef="30"/>
  </Itemset>
  <Itemset id="535" numberOfItems="4">
   <ItemRef itemRef="15"/>
   <ItemRef itemRef="22"/>
   <ItemRef itemRef="27"/>
   <ItemRef itemRef="30"/>
  </Itemset>
  <Itemset id="536" numberOfItems="4">
   <ItemRef itemRef="14"/>
   <ItemRef itemRef="16"/>
   <ItemRef itemRef="21"/>
   <ItemRef itemRef="27"/>
  </Itemset>
  <Itemset id="537" numberOfItems="4">
   <ItemRef itemRef="14"/>
   <ItemRef itemRef="16"/>
   <ItemRef itemRef="21"/>
   <ItemRef itemRef="22"/>
  </Itemset>
  <Itemset id="538" numberOfItems="4">
   <ItemRef itemRef="14"/>
   <ItemRef itemRef="16"/>
   <ItemRef itemRef="21"/>
   <ItemRef itemRef="30"/>
  </Itemset>
  <Itemset id="539" numberOfItems="4">
   <ItemRef itemRef="14"/>
   <ItemRef itemRef="21"/>
   <ItemRef itemRef="22"/>
   <ItemRef itemRef="27"/>
  </Itemset>
  <Itemset id="540" numberOfItems="4">
   <ItemRef itemRef="14"/>
   <ItemRef itemRef="21"/>
   <ItemRef itemRef="27"/>
   <ItemRef itemRef="30"/>
  </Itemset>
  <Itemset id="541" numberOfItems="4">
   <ItemRef itemRef="14"/>
   <ItemRef itemRef="21"/>
   <ItemRef itemRef="22"/>
   <ItemRef itemRef="30"/>
  </Itemset>
  <Itemset id="542" numberOfItems="4">
   <ItemRef itemRef="16"/>
   <ItemRef itemRef="21"/>
   <ItemRef itemRef="22"/>
   <ItemRef itemRef="27"/>
  </Itemset>
  <Itemset id="543" numberOfItems="4">
   <ItemRef itemRef="16"/>
   <ItemRef itemRef="21"/>
   <ItemRef itemRef="27"/>
   <ItemRef itemRef="30"/>
  </Itemset>
  <Itemset id="544" numberOfItems="4">
   <ItemRef itemRef="16"/>
   <ItemRef itemRef="21"/>
   <ItemRef itemRef="22"/>
   <ItemRef itemRef="30"/>
  </Itemset>
  <Itemset id="545" numberOfItems="4">
   <ItemRef itemRef="21"/>
   <ItemRef itemRef="22"/>
   <ItemRef itemRef="27"/>
   <ItemRef itemRef="30"/>
  </Itemset>
  <Itemset id="546" numberOfItems="4">
   <ItemRef itemRef="9"/>
   <ItemRef itemRef="22"/>
   <ItemRef itemRef="26"/>
   <ItemRef itemRef="27"/>
  </Itemset>
  <Itemset id="547" numberOfItems="4">
   <ItemRef itemRef="9"/>
   <ItemRef itemRef="26"/>
   <ItemRef itemRef="27"/>
   <ItemRef itemRef="30"/>
  </Itemset>
  <Itemset id="548" numberOfItems="4">
   <ItemRef itemRef="9"/>
   <ItemRef itemRef="22"/>
   <ItemRef itemRef="26"/>
   <ItemRef itemRef="30"/>
  </Itemset>
  <Itemset id="549" numberOfItems="4">
   <ItemRef itemRef="14"/>
   <ItemRef itemRef="16"/>
   <ItemRef itemRef="26"/>
   <ItemRef itemRef="27"/>
  </Itemset>
  <Itemset id="550" numberOfItems="4">
   <ItemRef itemRef="14"/>
   <ItemRef itemRef="16"/>
   <ItemRef itemRef="22"/>
   <ItemRef itemRef="26"/>
  </Itemset>
  <Itemset id="551" numberOfItems="4">
   <ItemRef itemRef="14"/>
   <ItemRef itemRef="22"/>
   <ItemRef itemRef="26"/>
   <ItemRef itemRef="27"/>
  </Itemset>
  <Itemset id="552" numberOfItems="4">
   <ItemRef itemRef="14"/>
   <ItemRef itemRef="16"/>
   <ItemRef itemRef="26"/>
   <ItemRef itemRef="30"/>
  </Itemset>
  <Itemset id="553" numberOfItems="4">
   <ItemRef itemRef="14"/>
   <ItemRef itemRef="26"/>
   <ItemRef itemRef="27"/>
   <ItemRef itemRef="30"/>
  </Itemset>
  <Itemset id="554" numberOfItems="4">
   <ItemRef itemRef="14"/>
   <ItemRef itemRef="22"/>
   <ItemRef itemRef="26"/>
   <ItemRef itemRef="30"/>
  </Itemset>
  <Itemset id="555" numberOfItems="4">
   <ItemRef itemRef="16"/>
   <ItemRef itemRef="22"/>
   <ItemRef itemRef="26"/>
   <ItemRef itemRef="27"/>
  </Itemset>
  <Itemset id="556" numberOfItems="4">
   <ItemRef itemRef="16"/>
   <ItemRef itemRef="26"/>
   <ItemRef itemRef="27"/>
   <ItemRef itemRef="30"/>
  </Itemset>
  <Itemset id="557" numberOfItems="4">
   <ItemRef itemRef="16"/>
   <ItemRef itemRef="22"/>
   <ItemRef itemRef="26"/>
   <ItemRef itemRef="30"/>
  </Itemset>
  <Itemset id="558" numberOfItems="4">
   <ItemRef itemRef="9"/>
   <ItemRef itemRef="17"/>
   <ItemRef itemRef="22"/>
   <ItemRef itemRef="27"/>
  </Itemset>
  <Itemset id="559" numberOfItems="4">
   <ItemRef itemRef="9"/>
   <ItemRef itemRef="17"/>
   <ItemRef itemRef="27"/>
   <ItemRef itemRef="30"/>
  </Itemset>
  <Itemset id="560" numberOfItems="4">
   <ItemRef itemRef="9"/>
   <ItemRef itemRef="17"/>
   <ItemRef itemRef="22"/>
   <ItemRef itemRef="30"/>
  </Itemset>
  <Itemset id="561" numberOfItems="4">
   <ItemRef itemRef="9"/>
   <ItemRef itemRef="14"/>
   <ItemRef itemRef="16"/>
   <ItemRef itemRef="27"/>
  </Itemset>
  <Itemset id="562" numberOfItems="4">
   <ItemRef itemRef="9"/>
   <ItemRef itemRef="14"/>
   <ItemRef itemRef="16"/>
   <ItemRef itemRef="22"/>
  </Itemset>
  <Itemset id="563" numberOfItems="4">
   <ItemRef itemRef="9"/>
   <ItemRef itemRef="14"/>
   <ItemRef itemRef="22"/>
   <ItemRef itemRef="27"/>
  </Itemset>
  <Itemset id="564" numberOfItems="4">
   <ItemRef itemRef="9"/>
   <ItemRef itemRef="14"/>
   <ItemRef itemRef="16"/>
   <ItemRef itemRef="30"/>
  </Itemset>
  <Itemset id="565" numberOfItems="4">
   <ItemRef itemRef="9"/>
   <ItemRef itemRef="14"/>
   <ItemRef itemRef="27"/>
   <ItemRef itemRef="30"/>
  </Itemset>
  <Itemset id="566" numberOfItems="4">
   <ItemRef itemRef="9"/>
   <ItemRef itemRef="14"/>
   <ItemRef itemRef="22"/>
   <ItemRef itemRef="30"/>
  </Itemset>
  <Itemset id="567" numberOfItems="4">
   <ItemRef itemRef="9"/>
   <ItemRef itemRef="16"/>
   <ItemRef itemRef="22"/>
   <ItemRef itemRef="27"/>
  </Itemset>
  <Itemset id="568" numberOfItems="4">
   <ItemRef itemRef="9"/>
   <ItemRef itemRef="16"/>
   <ItemRef itemRef="27"/>
   <ItemRef itemRef="30"/>
  </Itemset>
  <Itemset id="569" numberOfItems="4">
   <ItemRef itemRef="9"/>
   <ItemRef itemRef="16"/>
   <ItemRef itemRef="22"/>
   <ItemRef itemRef="30"/>
  </Itemset>
  <Itemset id="570" numberOfItems="4">
   <ItemRef itemRef="14"/>
   <ItemRef itemRef="16"/>
   <ItemRef itemRef="17"/>
   <ItemRef itemRef="27"/>
  </Itemset>
  <Itemset id="571" numberOfItems="4">
   <ItemRef itemRef="14"/>
   <ItemRef itemRef="16"/>
   <ItemRef itemRef="17"/>
   <ItemRef itemRef="22"/>
  </Itemset>
  <Itemset id="572" numberOfItems="4">
   <ItemRef itemRef="14"/>
   <ItemRef itemRef="17"/>
   <ItemRef itemRef="22"/>
   <ItemRef itemRef="27"/>
  </Itemset>
  <Itemset id="573" numberOfItems="4">
   <ItemRef itemRef="14"/>
   <ItemRef itemRef="16"/>
   <ItemRef itemRef="17"/>
   <ItemRef itemRef="30"/>
  </Itemset>
  <Itemset id="574" numberOfItems="4">
   <ItemRef itemRef="14"/>
   <ItemRef itemRef="17"/>
   <ItemRef itemRef="27"/>
   <ItemRef itemRef="30"/>
  </Itemset>
  <Itemset id="575" numberOfItems="4">
   <ItemRef itemRef="14"/>
   <ItemRef itemRef="17"/>
   <ItemRef itemRef="22"/>
   <ItemRef itemRef="30"/>
  </Itemset>
  <Itemset id="576" numberOfItems="4">
   <ItemRef itemRef="16"/>
   <ItemRef itemRef="17"/>
   <ItemRef itemRef="22"/>
   <ItemRef itemRef="27"/>
  </Itemset>
  <Itemset id="577" numberOfItems="4">
   <ItemRef itemRef="16"/>
   <ItemRef itemRef="17"/>
   <ItemRef itemRef="27"/>
   <ItemRef itemRef="30"/>
  </Itemset>
  <Itemset id="578" numberOfItems="4">
   <ItemRef itemRef="16"/>
   <ItemRef itemRef="17"/>
   <ItemRef itemRef="22"/>
   <ItemRef itemRef="30"/>
  </Itemset>
  <Itemset id="579" numberOfItems="4">
   <ItemRef itemRef="14"/>
   <ItemRef itemRef="16"/>
   <ItemRef itemRef="22"/>
   <ItemRef itemRef="27"/>
  </Itemset>
  <Itemset id="580" numberOfItems="4">
   <ItemRef itemRef="14"/>
   <ItemRef itemRef="16"/>
   <ItemRef itemRef="27"/>
   <ItemRef itemRef="30"/>
  </Itemset>
  <Itemset id="581" numberOfItems="4">
   <ItemRef itemRef="14"/>
   <ItemRef itemRef="16"/>
   <ItemRef itemRef="22"/>
   <ItemRef itemRef="30"/>
  </Itemset>
  <Itemset id="582" numberOfItems="4">
   <ItemRef itemRef="14"/>
   <ItemRef itemRef="22"/>
   <ItemRef itemRef="27"/>
   <ItemRef itemRef="30"/>
  </Itemset>
  <Itemset id="583" numberOfItems="5">
   <ItemRef itemRef="6"/>
   <ItemRef itemRef="14"/>
   <ItemRef itemRef="16"/>
   <ItemRef itemRef="22"/>
   <ItemRef itemRef="27"/>
  </Itemset>
  <Itemset id="584" numberOfItems="5">
   <ItemRef itemRef="6"/>
   <ItemRef itemRef="14"/>
   <ItemRef itemRef="16"/>
   <ItemRef itemRef="27"/>
   <ItemRef itemRef="30"/>
  </Itemset>
  <Itemset id="585" numberOfItems="5">
   <ItemRef itemRef="6"/>
   <ItemRef itemRef="14"/>
   <ItemRef itemRef="16"/>
   <ItemRef itemRef="22"/>
   <ItemRef itemRef="30"/>
  </Itemset>
  <Itemset id="586" numberOfItems="5">
   <ItemRef itemRef="6"/>
   <ItemRef itemRef="14"/>
   <ItemRef itemRef="22"/>
   <ItemRef itemRef="27"/>
   <ItemRef itemRef="30"/>
  </Itemset>
  <Itemset id="587" numberOfItems="5">
   <ItemRef itemRef="2"/>
   <ItemRef itemRef="16"/>
   <ItemRef itemRef="22"/>
   <ItemRef itemRef="25"/>
   <ItemRef itemRef="27"/>
  </Itemset>
  <Itemset id="588" numberOfItems="5">
   <ItemRef itemRef="2"/>
   <ItemRef itemRef="16"/>
   <ItemRef itemRef="25"/>
   <ItemRef itemRef="27"/>
   <ItemRef itemRef="30"/>
  </Itemset>
  <Itemset id="589" numberOfItems="5">
   <ItemRef itemRef="2"/>
   <ItemRef itemRef="16"/>
   <ItemRef itemRef="22"/>
   <ItemRef itemRef="25"/>
   <ItemRef itemRef="30"/>
  </Itemset>
  <Itemset id="590" numberOfItems="5">
   <ItemRef itemRef="2"/>
   <ItemRef itemRef="16"/>
   <ItemRef itemRef="22"/>
   <ItemRef itemRef="27"/>
   <ItemRef itemRef="30"/>
  </Itemset>
  <Itemset id="591" numberOfItems="5">
   <ItemRef itemRef="16"/>
   <ItemRef itemRef="22"/>
   <ItemRef itemRef="25"/>
   <ItemRef itemRef="27"/>
   <ItemRef itemRef="30"/>
  </Itemset>
  <Itemset id="592" numberOfItems="5">
   <ItemRef itemRef="14"/>
   <ItemRef itemRef="16"/>
   <ItemRef itemRef="22"/>
   <ItemRef itemRef="25"/>
   <ItemRef itemRef="27"/>
  </Itemset>
  <Itemset id="593" numberOfItems="5">
   <ItemRef itemRef="14"/>
   <ItemRef itemRef="16"/>
   <ItemRef itemRef="25"/>
   <ItemRef itemRef="27"/>
   <ItemRef itemRef="30"/>
  </Itemset>
  <Itemset id="594" numberOfItems="5">
   <ItemRef itemRef="14"/>
   <ItemRef itemRef="16"/>
   <ItemRef itemRef="22"/>
   <ItemRef itemRef="25"/>
   <ItemRef itemRef="30"/>
  </Itemset>
  <Itemset id="595" numberOfItems="5">
   <ItemRef itemRef="14"/>
   <ItemRef itemRef="22"/>
   <ItemRef itemRef="25"/>
   <ItemRef itemRef="27"/>
   <ItemRef itemRef="30"/>
  </Itemset>
  <Itemset id="596" numberOfItems="5">
   <ItemRef itemRef="5"/>
   <ItemRef itemRef="14"/>
   <ItemRef itemRef="16"/>
   <ItemRef itemRef="22"/>
   <ItemRef itemRef="27"/>
  </Itemset>
  <Itemset id="597" numberOfItems="5">
   <ItemRef itemRef="5"/>
   <ItemRef itemRef="14"/>
   <ItemRef itemRef="16"/>
   <ItemRef itemRef="27"/>
   <ItemRef itemRef="30"/>
  </Itemset>
  <Itemset id="598" numberOfItems="5">
   <ItemRef itemRef="5"/>
   <ItemRef itemRef="14"/>
   <ItemRef itemRef="16"/>
   <ItemRef itemRef="22"/>
   <ItemRef itemRef="30"/>
  </Itemset>
  <Itemset id="599" numberOfItems="5">
   <ItemRef itemRef="5"/>
   <ItemRef itemRef="14"/>
   <ItemRef itemRef="22"/>
   <ItemRef itemRef="27"/>
   <ItemRef itemRef="30"/>
  </Itemset>
  <Itemset id="600" numberOfItems="5">
   <ItemRef itemRef="13"/>
   <ItemRef itemRef="14"/>
   <ItemRef itemRef="16"/>
   <ItemRef itemRef="22"/>
   <ItemRef itemRef="27"/>
  </Itemset>
  <Itemset id="601" numberOfItems="5">
   <ItemRef itemRef="13"/>
   <ItemRef itemRef="14"/>
   <ItemRef itemRef="16"/>
   <ItemRef itemRef="27"/>
   <ItemRef itemRef="30"/>
  </Itemset>
  <Itemset id="602" numberOfItems="5">
   <ItemRef itemRef="13"/>
   <ItemRef itemRef="14"/>
   <ItemRef itemRef="16"/>
   <ItemRef itemRef="22"/>
   <ItemRef itemRef="30"/>
  </Itemset>
  <Itemset id="603" numberOfItems="5">
   <ItemRef itemRef="13"/>
   <ItemRef itemRef="14"/>
   <ItemRef itemRef="22"/>
   <ItemRef itemRef="27"/>
   <ItemRef itemRef="30"/>
  </Itemset>
  <Itemset id="604" numberOfItems="5">
   <ItemRef itemRef="7"/>
   <ItemRef itemRef="14"/>
   <ItemRef itemRef="15"/>
   <ItemRef itemRef="16"/>
   <ItemRef itemRef="21"/>
  </Itemset>
  <Itemset id="605" numberOfItems="5">
   <ItemRef itemRef="7"/>
   <ItemRef itemRef="14"/>
   <ItemRef itemRef="15"/>
   <ItemRef itemRef="21"/>
   <ItemRef itemRef="27"/>
  </Itemset>
  <Itemset id="606" numberOfItems="5">
   <ItemRef itemRef="7"/>
   <ItemRef itemRef="14"/>
   <ItemRef itemRef="15"/>
   <ItemRef itemRef="16"/>
   <ItemRef itemRef="27"/>
  </Itemset>
  <Itemset id="607" numberOfItems="5">
   <ItemRef itemRef="7"/>
   <ItemRef itemRef="14"/>
   <ItemRef itemRef="16"/>
   <ItemRef itemRef="21"/>
   <ItemRef itemRef="27"/>
  </Itemset>
  <Itemset id="608" numberOfItems="5">
   <ItemRef itemRef="14"/>
   <ItemRef itemRef="15"/>
   <ItemRef itemRef="16"/>
   <ItemRef itemRef="21"/>
   <ItemRef itemRef="27"/>
  </Itemset>
  <Itemset id="609" numberOfItems="5">
   <ItemRef itemRef="7"/>
   <ItemRef itemRef="14"/>
   <ItemRef itemRef="15"/>
   <ItemRef itemRef="21"/>
   <ItemRef itemRef="22"/>
  </Itemset>
  <Itemset id="610" numberOfItems="5">
   <ItemRef itemRef="7"/>
   <ItemRef itemRef="14"/>
   <ItemRef itemRef="15"/>
   <ItemRef itemRef="16"/>
   <ItemRef itemRef="22"/>
  </Itemset>
  <Itemset id="611" numberOfItems="5">
   <ItemRef itemRef="7"/>
   <ItemRef itemRef="14"/>
   <ItemRef itemRef="16"/>
   <ItemRef itemRef="21"/>
   <ItemRef itemRef="22"/>
  </Itemset>
  <Itemset id="612" numberOfItems="5">
   <ItemRef itemRef="14"/>
   <ItemRef itemRef="15"/>
   <ItemRef itemRef="16"/>
   <ItemRef itemRef="21"/>
   <ItemRef itemRef="22"/>
  </Itemset>
  <Itemset id="613" numberOfItems="5">
   <ItemRef itemRef="7"/>
   <ItemRef itemRef="14"/>
   <ItemRef itemRef="15"/>
   <ItemRef itemRef="21"/>
   <ItemRef itemRef="30"/>
  </Itemset>
  <Itemset id="614" numberOfItems="5">
   <ItemRef itemRef="7"/>
   <ItemRef itemRef="14"/>
   <ItemRef itemRef="15"/>
   <ItemRef itemRef="16"/>
   <ItemRef itemRef="30"/>
  </Itemset>
  <Itemset id="615" numberOfItems="5">
   <ItemRef itemRef="7"/>
   <ItemRef itemRef="14"/>
   <ItemRef itemRef="16"/>
   <ItemRef itemRef="21"/>
   <ItemRef itemRef="30"/>
  </Itemset>
  <Itemset id="616" numberOfItems="5">
   <ItemRef itemRef="14"/>
   <ItemRef itemRef="15"/>
   <ItemRef itemRef="16"/>
   <ItemRef itemRef="21"/>
   <ItemRef itemRef="30"/>
  </Itemset>
  <Itemset id="617" numberOfItems="5">
   <ItemRef itemRef="7"/>
   <ItemRef itemRef="14"/>
   <ItemRef itemRef="15"/>
   <ItemRef itemRef="22"/>
   <ItemRef itemRef="27"/>
  </Itemset>
  <Itemset id="618" numberOfItems="5">
   <ItemRef itemRef="7"/>
   <ItemRef itemRef="14"/>
   <ItemRef itemRef="21"/>
   <ItemRef itemRef="22"/>
   <ItemRef itemRef="27"/>
  </Itemset>
  <Itemset id="619" numberOfItems="5">
   <ItemRef itemRef="14"/>
   <ItemRef itemRef="15"/>
   <ItemRef itemRef="21"/>
   <ItemRef itemRef="22"/>
   <ItemRef itemRef="27"/>
  </Itemset>
  <Itemset id="620" numberOfItems="5">
   <ItemRef itemRef="7"/>
   <ItemRef itemRef="14"/>
   <ItemRef itemRef="15"/>
   <ItemRef itemRef="27"/>
   <ItemRef itemRef="30"/>
  </Itemset>
  <Itemset id="621" numberOfItems="5">
   <ItemRef itemRef="7"/>
   <ItemRef itemRef="14"/>
   <ItemRef itemRef="21"/>
   <ItemRef itemRef="27"/>
   <ItemRef itemRef="30"/>
  </Itemset>
  <Itemset id="622" numberOfItems="5">
   <ItemRef itemRef="14"/>
   <ItemRef itemRef="15"/>
   <ItemRef itemRef="21"/>
   <ItemRef itemRef="27"/>
   <ItemRef itemRef="30"/>
  </Itemset>
  <Itemset id="623" numberOfItems="5">
   <ItemRef itemRef="7"/>
   <ItemRef itemRef="14"/>
   <ItemRef itemRef="15"/>
   <ItemRef itemRef="22"/>
   <ItemRef itemRef="30"/>
  </Itemset>
  <Itemset id="624" numberOfItems="5">
   <ItemRef itemRef="7"/>
   <ItemRef itemRef="14"/>
   <ItemRef itemRef="21"/>
   <ItemRef itemRef="22"/>
   <ItemRef itemRef="30"/>
  </Itemset>
  <Itemset id="625" numberOfItems="5">
   <ItemRef itemRef="14"/>
   <ItemRef itemRef="15"/>
   <ItemRef itemRef="21"/>
   <ItemRef itemRef="22"/>
   <ItemRef itemRef="30"/>
  </Itemset>
  <Itemset id="626" numberOfItems="5">
   <ItemRef itemRef="7"/>
   <ItemRef itemRef="15"/>
   <ItemRef itemRef="16"/>
   <ItemRef itemRef="21"/>
   <ItemRef itemRef="27"/>
  </Itemset>
  <Itemset id="627" numberOfItems="5">
   <ItemRef itemRef="7"/>
   <ItemRef itemRef="15"/>
   <ItemRef itemRef="16"/>
   <ItemRef itemRef="21"/>
   <ItemRef itemRef="22"/>
  </Itemset>
  <Itemset id="628" numberOfItems="5">
   <ItemRef itemRef="7"/>
   <ItemRef itemRef="15"/>
   <ItemRef itemRef="16"/>
   <ItemRef itemRef="22"/>
   <ItemRef itemRef="27"/>
  </Itemset>
  <Itemset id="629" numberOfItems="5">
   <ItemRef itemRef="7"/>
   <ItemRef itemRef="16"/>
   <ItemRef itemRef="21"/>
   <ItemRef itemRef="22"/>
   <ItemRef itemRef="27"/>
  </Itemset>
  <Itemset id="630" numberOfItems="5">
   <ItemRef itemRef="15"/>
   <ItemRef itemRef="16"/>
   <ItemRef itemRef="21"/>
   <ItemRef itemRef="22"/>
   <ItemRef itemRef="27"/>
  </Itemset>
  <Itemset id="631" numberOfItems="5">
   <ItemRef itemRef="7"/>
   <ItemRef itemRef="15"/>
   <ItemRef itemRef="16"/>
   <ItemRef itemRef="21"/>
   <ItemRef itemRef="30"/>
  </Itemset>
  <Itemset id="632" numberOfItems="5">
   <ItemRef itemRef="7"/>
   <ItemRef itemRef="15"/>
   <ItemRef itemRef="16"/>
   <ItemRef itemRef="27"/>
   <ItemRef itemRef="30"/>
  </Itemset>
  <Itemset id="633" numberOfItems="5">
   <ItemRef itemRef="7"/>
   <ItemRef itemRef="16"/>
   <ItemRef itemRef="21"/>
   <ItemRef itemRef="27"/>
   <ItemRef itemRef="30"/>
  </Itemset>
  <Itemset id="634" numberOfItems="5">
   <ItemRef itemRef="15"/>
   <ItemRef itemRef="16"/>
   <ItemRef itemRef="21"/>
   <ItemRef itemRef="27"/>
   <ItemRef itemRef="30"/>
  </Itemset>
  <Itemset id="635" numberOfItems="5">
   <ItemRef itemRef="7"/>
   <ItemRef itemRef="15"/>
   <ItemRef itemRef="16"/>
   <ItemRef itemRef="22"/>
   <ItemRef itemRef="30"/>
  </Itemset>
  <Itemset id="636" numberOfItems="5">
   <ItemRef itemRef="7"/>
   <ItemRef itemRef="16"/>
   <ItemRef itemRef="21"/>
   <ItemRef itemRef="22"/>
   <ItemRef itemRef="30"/>
  </Itemset>
  <Itemset id="637" numberOfItems="5">
   <ItemRef itemRef="15"/>
   <ItemRef itemRef="16"/>
   <ItemRef itemRef="21"/>
   <ItemRef itemRef="22"/>
   <ItemRef itemRef="30"/>
  </Itemset>
  <Itemset id="638" numberOfItems="5">
   <ItemRef itemRef="7"/>
   <ItemRef itemRef="15"/>
   <ItemRef itemRef="21"/>
   <ItemRef itemRef="22"/>
   <ItemRef itemRef="27"/>
  </Itemset>
  <Itemset id="639" numberOfItems="5">
   <ItemRef itemRef="7"/>
   <ItemRef itemRef="15"/>
   <ItemRef itemRef="21"/>
   <ItemRef itemRef="27"/>
   <ItemRef itemRef="30"/>
  </Itemset>
  <Itemset id="640" numberOfItems="5">
   <ItemRef itemRef="7"/>
   <ItemRef itemRef="15"/>
   <ItemRef itemRef="21"/>
   <ItemRef itemRef="22"/>
   <ItemRef itemRef="30"/>
  </Itemset>
  <Itemset id="641" numberOfItems="5">
   <ItemRef itemRef="7"/>
   <ItemRef itemRef="15"/>
   <ItemRef itemRef="22"/>
   <ItemRef itemRef="27"/>
   <ItemRef itemRef="30"/>
  </Itemset>
  <Itemset id="642" numberOfItems="5">
   <ItemRef itemRef="7"/>
   <ItemRef itemRef="21"/>
   <ItemRef itemRef="22"/>
   <ItemRef itemRef="27"/>
   <ItemRef itemRef="30"/>
  </Itemset>
  <Itemset id="643" numberOfItems="5">
   <ItemRef itemRef="15"/>
   <ItemRef itemRef="21"/>
   <ItemRef itemRef="22"/>
   <ItemRef itemRef="27"/>
   <ItemRef itemRef="30"/>
  </Itemset>
  <Itemset id="644" numberOfItems="5">
   <ItemRef itemRef="7"/>
   <ItemRef itemRef="14"/>
   <ItemRef itemRef="16"/>
   <ItemRef itemRef="22"/>
   <ItemRef itemRef="27"/>
  </Itemset>
  <Itemset id="645" numberOfItems="5">
   <ItemRef itemRef="14"/>
   <ItemRef itemRef="15"/>
   <ItemRef itemRef="16"/>
   <ItemRef itemRef="22"/>
   <ItemRef itemRef="27"/>
  </Itemset>
  <Itemset id="646" numberOfItems="5">
   <ItemRef itemRef="7"/>
   <ItemRef itemRef="14"/>
   <ItemRef itemRef="16"/>
   <ItemRef itemRef="27"/>
   <ItemRef itemRef="30"/>
  </Itemset>
  <Itemset id="647" numberOfItems="5">
   <ItemRef itemRef="14"/>
   <ItemRef itemRef="15"/>
   <ItemRef itemRef="16"/>
   <ItemRef itemRef="27"/>
   <ItemRef itemRef="30"/>
  </Itemset>
  <Itemset id="648" numberOfItems="5">
   <ItemRef itemRef="7"/>
   <ItemRef itemRef="14"/>
   <ItemRef itemRef="16"/>
   <ItemRef itemRef="22"/>
   <ItemRef itemRef="30"/>
  </Itemset>
  <Itemset id="649" numberOfItems="5">
   <ItemRef itemRef="14"/>
   <ItemRef itemRef="15"/>
   <ItemRef itemRef="16"/>
   <ItemRef itemRef="22"/>
   <ItemRef itemRef="30"/>
  </Itemset>
  <Itemset id="650" numberOfItems="5">
   <ItemRef itemRef="7"/>
   <ItemRef itemRef="14"/>
   <ItemRef itemRef="22"/>
   <ItemRef itemRef="27"/>
   <ItemRef itemRef="30"/>
  </Itemset>
  <Itemset id="651" numberOfItems="5">
   <ItemRef itemRef="14"/>
   <ItemRef itemRef="15"/>
   <ItemRef itemRef="22"/>
   <ItemRef itemRef="27"/>
   <ItemRef itemRef="30"/>
  </Itemset>
  <Itemset id="652" numberOfItems="5">
   <ItemRef itemRef="7"/>
   <ItemRef itemRef="16"/>
   <ItemRef itemRef="22"/>
   <ItemRef itemRef="27"/>
   <ItemRef itemRef="30"/>
  </Itemset>
  <Itemset id="653" numberOfItems="5">
   <ItemRef itemRef="15"/>
   <ItemRef itemRef="16"/>
   <ItemRef itemRef="22"/>
   <ItemRef itemRef="27"/>
   <ItemRef itemRef="30"/>
  </Itemset>
  <Itemset id="654" numberOfItems="5">
   <ItemRef itemRef="14"/>
   <ItemRef itemRef="16"/>
   <ItemRef itemRef="21"/>
   <ItemRef itemRef="22"/>
   <ItemRef itemRef="27"/>
  </Itemset>
  <Itemset id="655" numberOfItems="5">
   <ItemRef itemRef="14"/>
   <ItemRef itemRef="16"/>
   <ItemRef itemRef="21"/>
   <ItemRef itemRef="27"/>
   <ItemRef itemRef="30"/>
  </Itemset>
  <Itemset id="656" numberOfItems="5">
   <ItemRef itemRef="14"/>
   <ItemRef itemRef="16"/>
   <ItemRef itemRef="21"/>
   <ItemRef itemRef="22"/>
   <ItemRef itemRef="30"/>
  </Itemset>
  <Itemset id="657" numberOfItems="5">
   <ItemRef itemRef="14"/>
   <ItemRef itemRef="21"/>
   <ItemRef itemRef="22"/>
   <ItemRef itemRef="27"/>
   <ItemRef itemRef="30"/>
  </Itemset>
  <Itemset id="658" numberOfItems="5">
   <ItemRef itemRef="16"/>
   <ItemRef itemRef="21"/>
   <ItemRef itemRef="22"/>
   <ItemRef itemRef="27"/>
   <ItemRef itemRef="30"/>
  </Itemset>
  <Itemset id="659" numberOfItems="5">
   <ItemRef itemRef="14"/>
   <ItemRef itemRef="16"/>
   <ItemRef itemRef="22"/>
   <ItemRef itemRef="26"/>
   <ItemRef itemRef="27"/>
  </Itemset>
  <Itemset id="660" numberOfItems="5">
   <ItemRef itemRef="14"/>
   <ItemRef itemRef="16"/>
   <ItemRef itemRef="26"/>
   <ItemRef itemRef="27"/>
   <ItemRef itemRef="30"/>
  </Itemset>
  <Itemset id="661" numberOfItems="5">
   <ItemRef itemRef="14"/>
   <ItemRef itemRef="16"/>
   <ItemRef itemRef="22"/>
   <ItemRef itemRef="26"/>
   <ItemRef itemRef="30"/>
  </Itemset>
  <Itemset id="662" numberOfItems="5">
   <ItemRef itemRef="14"/>
   <ItemRef itemRef="22"/>
   <ItemRef itemRef="26"/>
   <ItemRef itemRef="27"/>
   <ItemRef itemRef="30"/>
  </Itemset>
  <Itemset id="663" numberOfItems="5">
   <ItemRef itemRef="9"/>
   <ItemRef itemRef="14"/>
   <ItemRef itemRef="16"/>
   <ItemRef itemRef="22"/>
   <ItemRef itemRef="27"/>
  </Itemset>
  <Itemset id="664" numberOfItems="5">
   <ItemRef itemRef="9"/>
   <ItemRef itemRef="14"/>
   <ItemRef itemRef="16"/>
   <ItemRef itemRef="27"/>
   <ItemRef itemRef="30"/>
  </Itemset>
  <Itemset id="665" numberOfItems="5">
   <ItemRef itemRef="9"/>
   <ItemRef itemRef="14"/>
   <ItemRef itemRef="16"/>
   <ItemRef itemRef="22"/>
   <ItemRef itemRef="30"/>
  </Itemset>
  <Itemset id="666" numberOfItems="5">
   <ItemRef itemRef="9"/>
   <ItemRef itemRef="14"/>
   <ItemRef itemRef="22"/>
   <ItemRef itemRef="27"/>
   <ItemRef itemRef="30"/>
  </Itemset>
  <Itemset id="667" numberOfItems="5">
   <ItemRef itemRef="14"/>
   <ItemRef itemRef="16"/>
   <ItemRef itemRef="17"/>
   <ItemRef itemRef="22"/>
   <ItemRef itemRef="27"/>
  </Itemset>
  <Itemset id="668" numberOfItems="5">
   <ItemRef itemRef="14"/>
   <ItemRef itemRef="16"/>
   <ItemRef itemRef="17"/>
   <ItemRef itemRef="27"/>
   <ItemRef itemRef="30"/>
  </Itemset>
  <Itemset id="669" numberOfItems="5">
   <ItemRef itemRef="14"/>
   <ItemRef itemRef="16"/>
   <ItemRef itemRef="17"/>
   <ItemRef itemRef="22"/>
   <ItemRef itemRef="30"/>
  </Itemset>
  <Itemset id="670" numberOfItems="5">
   <ItemRef itemRef="14"/>
   <ItemRef itemRef="17"/>
   <ItemRef itemRef="22"/>
   <ItemRef itemRef="27"/>
   <ItemRef itemRef="30"/>
  </Itemset>
  <Itemset id="671" numberOfItems="6">
   <ItemRef itemRef="7"/>
   <ItemRef itemRef="14"/>
   <ItemRef itemRef="15"/>
   <ItemRef itemRef="16"/>
   <ItemRef itemRef="21"/>
   <ItemRef itemRef="27"/>
  </Itemset>
  <Itemset id="672" numberOfItems="6">
   <ItemRef itemRef="7"/>
   <ItemRef itemRef="14"/>
   <ItemRef itemRef="15"/>
   <ItemRef itemRef="16"/>
   <ItemRef itemRef="21"/>
   <ItemRef itemRef="22"/>
  </Itemset>
  <Itemset id="673" numberOfItems="6">
   <ItemRef itemRef="7"/>
   <ItemRef itemRef="14"/>
   <ItemRef itemRef="15"/>
   <ItemRef itemRef="21"/>
   <ItemRef itemRef="22"/>
   <ItemRef itemRef="27"/>
  </Itemset>
  <Itemset id="674" numberOfItems="6">
   <ItemRef itemRef="7"/>
   <ItemRef itemRef="14"/>
   <ItemRef itemRef="15"/>
   <ItemRef itemRef="16"/>
   <ItemRef itemRef="22"/>
   <ItemRef itemRef="27"/>
  </Itemset>
  <Itemset id="675" numberOfItems="6">
   <ItemRef itemRef="7"/>
   <ItemRef itemRef="14"/>
   <ItemRef itemRef="16"/>
   <ItemRef itemRef="21"/>
   <ItemRef itemRef="22"/>
   <ItemRef itemRef="27"/>
  </Itemset>
  <Itemset id="676" numberOfItems="6">
   <ItemRef itemRef="14"/>
   <ItemRef itemRef="15"/>
   <ItemRef itemRef="16"/>
   <ItemRef itemRef="21"/>
   <ItemRef itemRef="22"/>
   <ItemRef itemRef="27"/>
  </Itemset>
  <Itemset id="677" numberOfItems="6">
   <ItemRef itemRef="7"/>
   <ItemRef itemRef="14"/>
   <ItemRef itemRef="15"/>
   <ItemRef itemRef="16"/>
   <ItemRef itemRef="21"/>
   <ItemRef itemRef="30"/>
  </Itemset>
  <Itemset id="678" numberOfItems="6">
   <ItemRef itemRef="7"/>
   <ItemRef itemRef="14"/>
   <ItemRef itemRef="15"/>
   <ItemRef itemRef="21"/>
   <ItemRef itemRef="27"/>
   <ItemRef itemRef="30"/>
  </Itemset>
  <Itemset id="679" numberOfItems="6">
   <ItemRef itemRef="7"/>
   <ItemRef itemRef="14"/>
   <ItemRef itemRef="15"/>
   <ItemRef itemRef="16"/>
   <ItemRef itemRef="27"/>
   <ItemRef itemRef="30"/>
  </Itemset>
  <Itemset id="680" numberOfItems="6">
   <ItemRef itemRef="7"/>
   <ItemRef itemRef="14"/>
   <ItemRef itemRef="16"/>
   <ItemRef itemRef="21"/>
   <ItemRef itemRef="27"/>
   <ItemRef itemRef="30"/>
  </Itemset>
  <Itemset id="681" numberOfItems="6">
   <ItemRef itemRef="14"/>
   <ItemRef itemRef="15"/>
   <ItemRef itemRef="16"/>
   <ItemRef itemRef="21"/>
   <ItemRef itemRef="27"/>
   <ItemRef itemRef="30"/>
  </Itemset>
  <Itemset id="682" numberOfItems="6">
   <ItemRef itemRef="7"/>
   <ItemRef itemRef="14"/>
   <ItemRef itemRef="15"/>
   <ItemRef itemRef="21"/>
   <ItemRef itemRef="22"/>
   <ItemRef itemRef="30"/>
  </Itemset>
  <Itemset id="683" numberOfItems="6">
   <ItemRef itemRef="7"/>
   <ItemRef itemRef="14"/>
   <ItemRef itemRef="15"/>
   <ItemRef itemRef="16"/>
   <ItemRef itemRef="22"/>
   <ItemRef itemRef="30"/>
  </Itemset>
  <Itemset id="684" numberOfItems="6">
   <ItemRef itemRef="7"/>
   <ItemRef itemRef="14"/>
   <ItemRef itemRef="16"/>
   <ItemRef itemRef="21"/>
   <ItemRef itemRef="22"/>
   <ItemRef itemRef="30"/>
  </Itemset>
  <Itemset id="685" numberOfItems="6">
   <ItemRef itemRef="14"/>
   <ItemRef itemRef="15"/>
   <ItemRef itemRef="16"/>
   <ItemRef itemRef="21"/>
   <ItemRef itemRef="22"/>
   <ItemRef itemRef="30"/>
  </Itemset>
  <Itemset id="686" numberOfItems="6">
   <ItemRef itemRef="7"/>
   <ItemRef itemRef="14"/>
   <ItemRef itemRef="15"/>
   <ItemRef itemRef="22"/>
   <ItemRef itemRef="27"/>
   <ItemRef itemRef="30"/>
  </Itemset>
  <Itemset id="687" numberOfItems="6">
   <ItemRef itemRef="7"/>
   <ItemRef itemRef="14"/>
   <ItemRef itemRef="21"/>
   <ItemRef itemRef="22"/>
   <ItemRef itemRef="27"/>
   <ItemRef itemRef="30"/>
  </Itemset>
  <Itemset id="688" numberOfItems="6">
   <ItemRef itemRef="14"/>
   <ItemRef itemRef="15"/>
   <ItemRef itemRef="21"/>
   <ItemRef itemRef="22"/>
   <ItemRef itemRef="27"/>
   <ItemRef itemRef="30"/>
  </Itemset>
  <Itemset id="689" numberOfItems="6">
   <ItemRef itemRef="7"/>
   <ItemRef itemRef="15"/>
   <ItemRef itemRef="16"/>
   <ItemRef itemRef="21"/>
   <ItemRef itemRef="22"/>
   <ItemRef itemRef="27"/>
  </Itemset>
  <Itemset id="690" numberOfItems="6">
   <ItemRef itemRef="7"/>
   <ItemRef itemRef="15"/>
   <ItemRef itemRef="16"/>
   <ItemRef itemRef="21"/>
   <ItemRef itemRef="27"/>
   <ItemRef itemRef="30"/>
  </Itemset>
  <Itemset id="691" numberOfItems="6">
   <ItemRef itemRef="7"/>
